1000 100
我 -0.5093925 0.57992446 0.24580315 0.09893495 0.012193072 -1.0745207 0.4322811 1.08897 -0.65561324 -0.3958815 -0.23576398 -0.5275583 -0.2529046 0.1436712 0.20431466 -0.33495164 0.06399982 -0.8300645 -0.28851557 -1.0649532 0.46827072 0.38892585 0.362401 -0.6165156 -0.14164586 0.04613336 -0.5092033 -0.51139605 -0.7023858 0.016024552 0.5797738 0.20663248 0.10342638 -0.046061035 -0.028553994 0.7761837 -0.016871186 -0.53259856 -0.68528044 -0.9643573 -0.035808828 -0.19064473 -0.018494442 -0.31931558 0.5406946 -0.03242683 -0.19744024 0.04994876 0.32767913 0.35801652 0.4803387 -0.5969182 -0.3891307 -0.027789548 -0.6361769 0.7102772 0.40037924 -0.25735852 -1.0480171 0.2627798 0.27931195 0.60167813 0.05687946 -0.3392476 -0.8374582 0.27094528 0.44311243 0.5342693 -0.46135044 0.5056049 -0.32298228 0.2070022 0.5484436 -0.37264165 0.6471571 0.50222623 0.020048462 0.020779189 -0.4464203 0.42596877 -0.12510693 0.05659565 -0.54096544 0.9539375 -0.29597452 0.3781015 0.08820587 0.91122365 0.83772224 0.3451162 1.1478575 0.38790333 -0.24359949 -0.13578902 1.1418604 0.53233486 0.078095324 -0.86405134 0.06582709 -0.18343693
人 -0.40525672 0.45541266 0.19439986 0.074199446 0.02712626 -0.83978003 0.3295659 0.847146 -0.5093354 -0.31225544 -0.1908044 -0.41986609 -0.19836536 0.11504212 0.16679396 -0.25234327 0.055055335 -0.6415121 -0.22106726 -0.82154727 0.3625287 0.2928472 0.28346762 -0.48828894 -0.109234646 0.042433944 -0.3983495 -0.40134755 -0.54153144 0.023391051 0.47013757 0.15745676 0.071703784 -0.035728 -0.017142493 0.6092398 -0.011062745 -0.40451592 -0.52262 -0.74008197 -0.012798319 -0.16023868 -0.014988133 -0.24433506 0.41860053 -0.015531174 -0.14322491 0.027049031 0.25241515 0.2727148 0.39173993 -0.4777296 -0.29886454 -0.017687969 -0.5036117 0.56813973 0.31784317 -0.18761483 -0.8162341 0.20516618 0.20985392 0.472394 0.040552583 -0.26374313 -0.6434633 0.21417877 0.35313928 0.40319717 -0.34695578 0.39775714 -0.26064032 0.1433597 0.43371212 -0.27397567 0.501218 0.38367832 8.056523e-05 0.011259293 -0.3385455 0.33403033 -0.108034216 0.045900673 -0.4200987 0.72866404 -0.22445203 0.29116514 0.06415512 0.7040248 0.6590255 0.2582554 0.8914651 0.3003645 -0.19112904 -0.11535363 0.8794846 0.41340575 0.07060684 -0.66663694 0.039551158 -0.14065188
如 -0.4030934 0.45894843 0.18456358 0.06854298 0.026303392 -0.8384155 0.3294365 0.8543524 -0.523586 -0.3024598 -0.19837043 -0.42048988 -0.1871882 0.11017328 0.17431337 -0.26978627 0.057444658 -0.64805776 -0.23142222 -0.83901113 0.358073 0.2959135 0.27306944 -0.49501136 -0.11080054 0.035020083 -0.39031008 -0.4046138 -0.5563334 0.021590017 0.4723754 0.15611786 0.063785814 -0.032148916 -0.03279804 0.61476666 -0.020330545 -0.41208598 -0.53797495 -0.7593279 -0.027226558 -0.15321398 -0.008244597 -0.23810169 0.43282446 -0.0206998 -0.15050887 0.026414791 0.24988694 0.27252012 0.39007396 -0.47805247 -0.31217104 -0.030010408 -0.5205167 0.5613412 0.3114614 -0.20122385 -0.8322004 0.19623177 0.22518812 0.47101757 0.055165023 -0.26067954 -0.66749847 0.2214292 0.35737896 0.4208523 -0.3669774 0.40343943 -0.25452667 0.1592112 0.43625006 -0.28203946 0.50580037 0.4081727 0.018863628 0.020125778 -0.35275716 0.34343418 -0.096944824 0.03654302 -0.4402926 0.74561644 -0.22818401 0.28940466 0.057510506 0.7180139 0.67445356 0.2673014 0.89870757 0.31360534 -0.1854966 -0.11193231 0.9036449 0.42460576 0.07669879 -0.67432123 0.06264553 -0.15775962
君 -0.3881949 0.43875575 0.17958109 0.06325789 0.023171889 -0.8020873 0.3192511 0.8091517 -0.47682846 -0.30260843 -0.1716639 -0.38791406 -0.1814071 0.09233379 0.16595164 -0.25192717 0.05510991 -0.62906426 -0.21675062 -0.777533 0.34475836 0.28339598 0.27421084 -0.4481537 -0.12545088 0.040229406 -0.36904442 -0.3831852 -0.5143119 0.016315158 0.44248706 0.15088633 0.060377378 -0.03187597 -0.018987926 0.58941054 -0.008970749 -0.3978134 -0.52000684 -0.70450497 -0.0152064655 -0.14181702 0.0048557823 -0.23414691 0.41259032 -0.021327628 -0.14027715 0.02407754 0.23721896 0.25474834 0.37081686 -0.44737655 -0.29400635 -0.029934982 -0.49038535 0.5351834 0.29757434 -0.17557658 -0.7716888 0.1827527 0.20868644 0.45308828 0.05182239 -0.24872866 -0.6159832 0.19336204 0.3302556 0.39950204 -0.34402835 0.3635677 -0.23958185 0.14301601 0.40597883 -0.25573385 0.4786879 0.36995724 0.0016121865 0.022586098 -0.33672214 0.32284984 -0.09863429 0.050040312 -0.4024236 0.7078217 -0.21681291 0.2786353 0.069259405 0.6889222 0.6224716 0.24180286 0.84289944 0.28824073 -0.18665883 -0.10388681 0.85296625 0.39296153 0.07132817 -0.6450378 0.046624996 -0.14653912
王 -0.40941274 0.45348045 0.18402578 0.06586634 0.02060324 -0.8350857 0.3321484 0.85421175 -0.51981246 -0.29868975 -0.20342848 -0.41154918 -0.20567511 0.11048184 0.15835097 -0.26732886 0.043285634 -0.6525916 -0.21165162 -0.83755344 0.36431587 0.29250526 0.28744614 -0.4693901 -0.12418122 0.041603543 -0.39557222 -0.40561834 -0.5535101 0.016703013 0.4774955 0.16897808 0.07554974 -0.04685758 -0.01117407 0.60632586 -0.023407869 -0.41055715 -0.53640676 -0.75753564 -0.019037522 -0.16664688 -0.017426006 -0.23399138 0.4362546 -0.035188794 -0.15028498 0.03140525 0.25962448 0.2634678 0.3913222 -0.4670373 -0.28599367 -0.03029622 -0.51108485 0.55528766 0.29868877 -0.20317864 -0.82352453 0.19404495 0.22534493 0.4668897 0.048502494 -0.2596316 -0.6584152 0.20661665 0.3618004 0.42902836 -0.36434683 0.40919313 -0.26606122 0.1589188 0.42727774 -0.2799003 0.5117961 0.4020204 0.0051491694 0.024701962 -0.3384293 0.33105043 -0.10776562 0.032255083 -0.42777297 0.74340016 -0.23538224 0.29047513 0.07535566 0.7236991 0.65685177 0.26213586 0.9026611 0.29768443 -0.1887064 -0.110363305 0.89210147 0.40694878 0.07638652 -0.6708201 0.05369434 -0.14431222
言 -0.39793426 0.4415844 0.18450777 0.055611286 0.006832241 -0.8175079 0.3271676 0.8267308 -0.50305504 -0.3068378 -0.18974759 -0.40315267 -0.19806272 0.094024606 0.15556495 -0.26446468 0.040074054 -0.64270115 -0.21417974 -0.80403745 0.34332338 0.29083598 0.27738318 -0.4594106 -0.12394295 0.033247706 -0.38298288 -0.40624005 -0.5281928 0.022405403 0.45930195 0.14820603 0.0649815 -0.03951742 -0.017668644 0.6030993 -0.01303125 -0.39596763 -0.5166082 -0.7360945 -0.012175251 -0.15892324 -0.017897068 -0.23882872 0.41421738 -0.028617393 -0.14724214 0.03769584 0.24763064 0.2632055 0.37793306 -0.46616596 -0.28440705 -0.01338155 -0.5036904 0.5505238 0.3108766 -0.19930059 -0.80368745 0.18427335 0.22200762 0.4576366 0.054456107 -0.26324856 -0.6323854 0.20782782 0.3398635 0.40402567 -0.35632402 0.3706936 -0.24876364 0.15397534 0.4275033 -0.26878694 0.4896727 0.39449254 -0.0021706645 0.01760301 -0.33692524 0.33557305 -0.09070132 0.035018023 -0.4113735 0.7127979 -0.22184783 0.27731487 0.056414463 0.70828235 0.6414883 0.261218 0.88047767 0.3051214 -0.19726254 -0.10689087 0.87209094 0.40707228 0.065893844 -0.66057855 0.054231364 -0.15365057
心 -0.31818074 0.3675452 0.15364738 0.060963955 0.013607579 -0.6864512 0.27778643 0.69464433 -0.42320296 -0.25212404 -0.15088688 -0.33617833 -0.15927878 0.09818225 0.12771074 -0.21651614 0.051838085 -0.5262405 -0.1801547 -0.68709075 0.2980685 0.24203625 0.23845184 -0.39619827 -0.09307457 0.034156643 -0.32696557 -0.33770713 -0.44881096 0.009877098 0.38522243 0.143097 0.059518907 -0.019657545 -0.026174333 0.50145775 -0.02371785 -0.3492183 -0.44589123 -0.6269659 -0.008533094 -0.13354759 0.0041138413 -0.21085165 0.35232458 -0.010255725 -0.1333843 0.014645429 0.20216651 0.22173758 0.3134862 -0.39553222 -0.25717196 -0.015879301 -0.42330343 0.4501862 0.2515746 -0.17047027 -0.67964286 0.1498624 0.18022941 0.38041657 0.046212263 -0.21246268 -0.542444 0.17912306 0.27763018 0.33326414 -0.30394596 0.31958205 -0.21036884 0.1338796 0.35025707 -0.22712594 0.4224286 0.31461835 0.01233733 0.019817295 -0.28734416 0.2864567 -0.07240236 0.027679339 -0.36052707 0.61086255 -0.18822768 0.23488693 0.06410421 0.5829251 0.53341377 0.2168004 0.73224026 0.2496541 -0.1634029 -0.08719858 0.7260493 0.34115908 0.065254696 -0.5570405 0.039943226 -0.11558172
天 -0.3229348 0.36860424 0.16702332 0.06551642 0.008979747 -0.69337296 0.2772941 0.6973614 -0.43033305 -0.26166308 -0.15945047 -0.3443622 -0.1562406 0.08677929 0.13617675 -0.21396159 0.044860017 -0.54156476 -0.18796006 -0.69532096 0.29786557 0.25628912 0.23003653 -0.40927663 -0.10777491 0.040298484 -0.33328763 -0.3314164 -0.4584051 0.021746079 0.37881437 0.14029847 0.059535746 -0.034239963 -0.02239002 0.5046223 -0.023177257 -0.3442519 -0.452066 -0.62195027 -0.007876697 -0.13217142 -0.006723055 -0.19798763 0.36310375 -0.026965339 -0.1318398 0.021914441 0.2184031 0.22792536 0.30878764 -0.39037353 -0.23697808 -0.027153023 -0.42668667 0.47554743 0.24546129 -0.1569999 -0.67705125 0.17269865 0.19240743 0.38754052 0.033469096 -0.20543753 -0.5389561 0.17864701 0.27867052 0.35304555 -0.29905382 0.3235522 -0.21061999 0.12799042 0.36097237 -0.23643574 0.4151095 0.32828447 0.01610959 0.0066586565 -0.28420457 0.27349693 -0.08952532 0.034973238 -0.36602467 0.6176789 -0.18672886 0.24212928 0.058593556 0.60523623 0.5566914 0.2172603 0.7454487 0.24500734 -0.17003207 -0.080671996 0.7311681 0.34258524 0.055377997 -0.5604172 0.046739765 -0.1261653
止 -0.30970886 0.3478233 0.147607 0.062283777 0.021415295 -0.62840813 0.25938934 0.63188475 -0.39193988 -0.22594634 -0.14148314 -0.31744716 -0.13647604 0.07625508 0.13470273 -0.1959134 0.029678186 -0.49390522 -0.17134924 -0.6265969 0.27431232 0.2354996 0.21861765 -0.36777467 -0.08651513 0.032587122 -0.3013092 -0.3171432 -0.40785947 0.004065696 0.3560009 0.11735752 0.06043307 -0.012216522 -0.01653199 0.4644398 -0.017814064 -0.30297354 -0.39786285 -0.5767605 -0.01785494 -0.1130968 -0.004726693 -0.18541871 0.32173952 -0.021653285 -0.11171643 0.028351136 0.18561952 0.20233634 0.29069602 -0.35338798 -0.2254499 -0.0233037 -0.3767533 0.422277 0.23494948 -0.14522086 -0.6108624 0.14139421 0.15759212 0.3506989 0.04489652 -0.19722311 -0.50240624 0.1584426 0.25751993 0.31869218 -0.2782155 0.30015287 -0.20387685 0.11733298 0.32897848 -0.2056697 0.37259233 0.29085058 -0.0014183946 0.0030796414 -0.2692473 0.25264052 -0.07421518 0.024710866 -0.31591293 0.559074 -0.16469382 0.22501062 0.049706146 0.5324723 0.49543902 0.20387451 0.66991 0.22967565 -0.14283586 -0.0804792 0.6761395 0.32045323 0.054469462 -0.496296 0.04487567 -0.11778886
方 -0.3527961 0.38333106 0.15614335 0.06773014 0.013472516 -0.7344324 0.28349286 0.7409749 -0.4455267 -0.27161208 -0.16537653 -0.36323288 -0.1695867 0.09497621 0.14112322 -0.21676959 0.04662079 -0.5790003 -0.18348071 -0.72634137 0.31589147 0.26441726 0.23354809 -0.419493 -0.095026046 0.030309128 -0.35197636 -0.34553537 -0.47328615 0.010561945 0.4133355 0.14778063 0.067545526 -0.019166019 -0.028037244 0.53588474 -0.01577837 -0.35301873 -0.46188483 -0.64889747 -0.01393302 -0.12994528 -0.009200251 -0.21609333 0.37063894 -0.01954246 -0.1329909 0.033383444 0.2226232 0.24448423 0.33685926 -0.3988459 -0.2598069 -0.011558388 -0.43715292 0.47946575 0.26220065 -0.17085926 -0.70613045 0.1732981 0.18739882 0.4186346 0.048907474 -0.22627918 -0.57252526 0.17518184 0.2998376 0.3501755 -0.31164303 0.34031728 -0.22054596 0.13725203 0.36745226 -0.25784084 0.43940592 0.33389738 0.008295875 0.00840553 -0.29049465 0.29519877 -0.0823458 0.032774333 -0.37339658 0.6521078 -0.19459179 0.2508967 0.047321737 0.6259112 0.58091384 0.23695435 0.768857 0.27276155 -0.16498663 -0.08466584 0.7791608 0.35203272 0.05035406 -0.57604146 0.055031106 -0.12371312
载 -0.3088094 0.35674426 0.1594355 0.04442771 0.005863314 -0.6764072 0.25998995 0.67973226 -0.4110539 -0.2525455 -0.1428353 -0.3344877 -0.14532962 0.07768142 0.13722435 -0.20376696 0.041837007 -0.5234205 -0.17058116 -0.6696408 0.28590533 0.23536786 0.22921449 -0.38531035 -0.10172303 0.035445295 -0.31684583 -0.32935813 -0.42795286 0.019422164 0.36639282 0.13079609 0.06893698 -0.015643032 -0.0091982335 0.4941095 -0.015564747 -0.33395025 -0.4352215 -0.6027602 -0.018558044 -0.12538886 -0.013175425 -0.18509142 0.33334064 -0.03169947 -0.12451524 0.023190098 0.192787 0.22030707 0.30378827 -0.37654272 -0.2485866 -0.016743068 -0.40038833 0.4497796 0.24246296 -0.15714185 -0.64627206 0.161858 0.16289698 0.3722677 0.040068958 -0.20391634 -0.5327089 0.17227136 0.2688221 0.3215693 -0.28069848 0.3120843 -0.20026495 0.13137417 0.33921775 -0.21351714 0.403041 0.32608697 0.014568986 -0.00028059632 -0.2808751 0.27958804 -0.069955885 0.043208618 -0.33274487 0.5995113 -0.19289893 0.24196705 0.045677353 0.578437 0.53408927 0.2175287 0.7250102 0.24427609 -0.15426072 -0.07711909 0.70079017 0.3312911 0.06516928 -0.54109246 0.04571888 -0.12874267
思 -0.27533615 0.33265558 0.13597608 0.055009365 0.0135540515 -0.60606515 0.23662555 0.6116867 -0.36935073 -0.22567928 -0.13153186 -0.29319003 -0.14039162 0.07370928 0.123013996 -0.19167693 0.031189531 -0.4736629 -0.16181809 -0.5994656 0.25335267 0.2057448 0.20076066 -0.3550723 -0.09432871 0.020712942 -0.2916125 -0.28381786 -0.38602558 0.011190256 0.3273151 0.109928735 0.052111894 -0.021873802 -0.013231493 0.4374396 -0.014160864 -0.29566842 -0.39263195 -0.54438186 -0.023130862 -0.11268737 -0.0042479862 -0.16844743 0.3009824 -0.020447137 -0.09739279 0.023136191 0.17874525 0.20440541 0.27698714 -0.34309974 -0.20797724 -0.011668809 -0.36980325 0.40165076 0.22182766 -0.13429046 -0.58660287 0.1389635 0.16085084 0.3388571 0.036123395 -0.18792109 -0.47399497 0.15797931 0.25739017 0.30465752 -0.2660865 0.28587663 -0.1886949 0.12072266 0.3107653 -0.19874443 0.3638496 0.28866312 0.00013142815 0.01960835 -0.25067663 0.23839219 -0.073104255 0.039653946 -0.3140384 0.5277461 -0.15562092 0.21192744 0.03971146 0.50715137 0.48179856 0.19540735 0.64625907 0.21340978 -0.14832123 -0.071607605 0.6412813 0.2884732 0.039137296 -0.48267317 0.0318959 -0.10768003
四 -0.3265548 0.36111656 0.1644717 0.041150495 0.0201093 -0.678079 0.26740667 0.70145714 -0.40336886 -0.2563348 -0.16327225 -0.34563518 -0.16670974 0.08528298 0.12988599 -0.22009128 0.04122176 -0.531097 -0.16939302 -0.6770861 0.29051197 0.24673004 0.22570026 -0.3839135 -0.09796397 0.0407204 -0.33206296 -0.3257868 -0.44400355 0.023685785 0.36788675 0.13506666 0.062363036 -0.026171993 -0.02271983 0.48766547 -0.025934435 -0.34468493 -0.43164143 -0.61250854 -0.019394813 -0.11783845 -0.00969487 -0.19946204 0.33881667 -0.03257743 -0.11178249 0.018655155 0.19694738 0.22746605 0.3215165 -0.3897245 -0.24241532 -0.02446655 -0.41109335 0.45281237 0.24791135 -0.1559434 -0.6574098 0.17210317 0.1691962 0.37864614 0.04498053 -0.20811525 -0.5344541 0.17171073 0.29445457 0.3372767 -0.30311045 0.32438526 -0.20281327 0.13005957 0.35256028 -0.23986258 0.4100439 0.31946656 0.010319482 0.003421502 -0.29029557 0.27763966 -0.08943405 0.039588615 -0.34952655 0.6148532 -0.18935898 0.2421419 0.061253294 0.58126026 0.53294104 0.21958569 0.7334319 0.24310575 -0.15170816 -0.094821446 0.72518736 0.33759838 0.06542171 -0.54070324 0.051169287 -0.11082613
女 -0.33827913 0.3812011 0.14750233 0.053551774 0.009570818 -0.6941601 0.26384556 0.685475 -0.42364457 -0.2538496 -0.16415885 -0.33315742 -0.16941862 0.08182076 0.1457161 -0.20739059 0.04817369 -0.53305125 -0.17789108 -0.6852824 0.3035603 0.24950716 0.23537824 -0.38629496 -0.08943406 0.042828918 -0.3359333 -0.3408844 -0.44577736 0.020523911 0.389637 0.14019378 0.067350976 -0.030521585 -0.0114776185 0.4962315 -0.026324397 -0.32808945 -0.4376753 -0.6222732 -0.018999046 -0.13142256 -0.0011472291 -0.19764614 0.34776264 -0.028712686 -0.12701969 0.02524014 0.21328036 0.22067925 0.316597 -0.38474944 -0.25396913 -0.01690125 -0.41812602 0.4656216 0.25943056 -0.16211271 -0.67503935 0.1708885 0.18569067 0.3949492 0.042872094 -0.20490658 -0.52874535 0.17094977 0.29490894 0.3445725 -0.28642944 0.32331905 -0.21419431 0.12301248 0.34354588 -0.22877063 0.42497483 0.3325428 0.0043358263 0.018359063 -0.27889973 0.27461284 -0.078242555 0.02922149 -0.34252807 0.615005 -0.18358505 0.24719934 0.061107352 0.5975143 0.5425219 0.21052615 0.7450053 0.25763363 -0.15707491 -0.089774616 0.7222649 0.33376318 0.065386444 -0.5528379 0.03609741 -0.110774584
予 -0.2977864 0.35524017 0.14758527 0.04332779 0.02418061 -0.6467488 0.25973213 0.6529233 -0.38154596 -0.24522707 -0.13914987 -0.32764602 -0.15718286 0.073205814 0.12029116 -0.19164635 0.046328574 -0.50518537 -0.16177504 -0.6380455 0.2857352 0.23696728 0.21209285 -0.37199336 -0.098752 0.035269894 -0.3021277 -0.31552815 -0.40901983 0.0094430465 0.34604743 0.12168322 0.055163197 -0.031678166 -0.021211928 0.45936915 -0.0046579046 -0.30863708 -0.41009274 -0.5707728 -0.007506891 -0.12003006 0.00075717183 -0.18381701 0.33286726 -0.012360947 -0.12152903 0.021025395 0.19481213 0.21336767 0.30057588 -0.35500142 -0.22234413 -0.027197668 -0.39188272 0.4246795 0.2472405 -0.14515293 -0.62816817 0.15694629 0.1592792 0.3552311 0.039057154 -0.19319198 -0.4964289 0.16626437 0.26464075 0.3153712 -0.27257627 0.29816565 -0.20455177 0.11003134 0.3356214 -0.21883282 0.38626432 0.29550654 0.013806124 0.013783998 -0.26344928 0.26240057 -0.0843934 0.03356885 -0.3242517 0.5593913 -0.16813807 0.23106535 0.05821941 0.55744666 0.5063298 0.19608264 0.69388384 0.23540835 -0.1425755 -0.07496489 0.68271655 0.30972707 0.050391242 -0.5039902 0.033438962 -0.10358278
民 -0.2984592 0.3321837 0.14169216 0.057354696 0.008078854 -0.614396 0.23436473 0.61861306 -0.3754507 -0.21559058 -0.14361387 -0.3120794 -0.1467824 0.08376479 0.11320363 -0.19554535 0.028426206 -0.46914372 -0.15483016 -0.5984039 0.2587699 0.22419956 0.1954298 -0.35176247 -0.092795655 0.029125812 -0.28850082 -0.289828 -0.3958223 0.0019876705 0.3330393 0.112102926 0.05754789 -0.012937227 -0.023928327 0.45200405 -0.00554072 -0.30841428 -0.39813355 -0.5401438 -0.0058626207 -0.11702984 -0.010743257 -0.1707233 0.3146733 -0.0114638945 -0.118497804 0.01106111 0.18400916 0.1871644 0.27486503 -0.3456999 -0.20595777 -0.007139605 -0.37247485 0.4145909 0.23367557 -0.14323397 -0.5863919 0.15112603 0.1614728 0.3375327 0.027872628 -0.19280007 -0.46539074 0.14525905 0.24920416 0.3102096 -0.25745666 0.29355907 -0.19622341 0.11182341 0.3179343 -0.20968947 0.37599495 0.29795167 0.0067248256 0.007364224 -0.25264728 0.24237071 -0.08070673 0.029668678 -0.3142264 0.543541 -0.17283446 0.22073597 0.040522404 0.5153885 0.48832116 0.20236309 0.64783305 0.22368431 -0.14682974 -0.08562128 0.6392183 0.30894062 0.056745052 -0.47673777 0.04526027 -0.09991621
大 -0.30493733 0.3349711 0.15022613 0.051316097 0.01903049 -0.6391208 0.24936435 0.65502006 -0.38872468 -0.23492831 -0.1524266 -0.3263478 -0.15752757 0.09128925 0.11622107 -0.18970391 0.026862232 -0.500426 -0.1693832 -0.64234936 0.28554773 0.23659533 0.21544679 -0.36237216 -0.091376856 0.04060551 -0.29676643 -0.3222839 -0.42078072 0.011549308 0.3578357 0.12127435 0.057176627 -0.03226382 -0.0135817425 0.4718167 -0.011032686 -0.3184851 -0.41817373 -0.5864162 -0.017027915 -0.12730876 -0.011957034 -0.17974885 0.33370996 -0.017624786 -0.12432717 0.017539851 0.20243646 0.21247059 0.28949007 -0.3658115 -0.22715998 -0.014807725 -0.38617873 0.43214238 0.2309477 -0.15951163 -0.6335509 0.15341164 0.17316514 0.3657725 0.03663155 -0.19328809 -0.4994518 0.1640251 0.25772646 0.32569677 -0.26771408 0.30835783 -0.18992648 0.12566945 0.3291134 -0.2182524 0.38676026 0.29262528 0.015152519 0.005723924 -0.25534928 0.25472292 -0.074882135 0.022807853 -0.33742458 0.56085265 -0.1817497 0.22695926 0.041705463 0.54404616 0.49925402 0.19873342 0.6935591 0.23574832 -0.14009571 -0.07494248 0.6716615 0.32301703 0.043159395 -0.5151948 0.031211581 -0.10806419
公 -0.3487994 0.4030827 0.17071627 0.05190584 0.02407922 -0.74232084 0.29932225 0.7459847 -0.45042068 -0.27456972 -0.17418447 -0.36888364 -0.16322936 0.09041343 0.15360901 -0.2406515 0.0436878 -0.5770087 -0.1835028 -0.73521847 0.3265199 0.25750953 0.23637022 -0.42883545 -0.109441 0.029742077 -0.3519738 -0.3681409 -0.47662228 0.015180691 0.40630868 0.14755999 0.056085452 -0.030590028 -0.014272044 0.5460815 -0.02853305 -0.35614395 -0.4640152 -0.6667356 -0.010783999 -0.1466963 0.00274086 -0.20873316 0.37610152 -0.029112075 -0.13729241 0.022388922 0.22491848 0.24053282 0.34745058 -0.40146336 -0.25343135 -0.024756754 -0.43426758 0.49369934 0.27655435 -0.16771019 -0.7186565 0.17902304 0.18644439 0.40924802 0.030684387 -0.22568047 -0.5668528 0.18499188 0.3072684 0.36651465 -0.30642408 0.33743262 -0.22676238 0.124726236 0.38035968 -0.23772115 0.45112666 0.35380888 0.016091144 0.020405285 -0.29715675 0.30742273 -0.092281714 0.047718942 -0.37069798 0.6494539 -0.19007598 0.26494804 0.064887755 0.6353318 0.5901505 0.23320982 0.7960498 0.27119926 -0.16416736 -0.096932665 0.78682876 0.371884 0.05912489 -0.590945 0.050319944 -0.13816014
匪 -0.32010603 0.3628087 0.15054865 0.06032731 0.021816395 -0.6993585 0.2751395 0.70781296 -0.42856452 -0.26000142 -0.16324045 -0.34662575 -0.15784355 0.09871363 0.1443309 -0.21578635 0.04415571 -0.5321519 -0.17156301 -0.67758924 0.30545324 0.23906776 0.22497013 -0.40339518 -0.09266621 0.03174516 -0.3367241 -0.32934028 -0.44091895 0.011097762 0.393512 0.13370782 0.056839697 -0.025264515 -0.01888385 0.50223225 -0.0137799 -0.3371108 -0.43546233 -0.63297135 -0.020126399 -0.13497184 0.0021984994 -0.19392459 0.34727168 -0.019135587 -0.1320644 0.024103744 0.21693616 0.22235104 0.31259876 -0.39651364 -0.25131574 -0.018323813 -0.4149747 0.47515863 0.25096616 -0.15997508 -0.66642547 0.16608305 0.18188772 0.39968872 0.047687493 -0.20758371 -0.5464557 0.1836912 0.29352993 0.35025156 -0.29764387 0.33022887 -0.20562418 0.12149622 0.36129087 -0.23048908 0.42679772 0.3222762 0.0040322803 0.01904885 -0.29598585 0.27349317 -0.08850593 0.034471013 -0.35696504 0.6201956 -0.17883486 0.24325964 0.053096093 0.5970639 0.5439192 0.21082376 0.74952775 0.24638975 -0.15517054 -0.077512085 0.73557144 0.3451441 0.06115264 -0.5565811 0.047197077 -0.12250308
来 -0.29063776 0.34341538 0.14380404 0.0562515 0.0050798776 -0.6192435 0.25579002 0.6266939 -0.3766784 -0.23632155 -0.14191556 -0.3050108 -0.13730374 0.078846164 0.1269857 -0.19271567 0.044033147 -0.49484926 -0.17015585 -0.6214272 0.26769137 0.22776614 0.1979446 -0.36148 -0.09792218 0.03541558 -0.29824212 -0.3144582 -0.40167838 0.022604845 0.34268138 0.11480607 0.05866329 -0.023005692 -0.027694315 0.4628931 -0.024224807 -0.31426045 -0.40261447 -0.56802493 -0.013542705 -0.10524108 0.00086903194 -0.17262866 0.31668904 -0.020129891 -0.11539197 0.013128765 0.19102731 0.20453341 0.27709752 -0.35527495 -0.2331787 -0.022414489 -0.37346292 0.42771792 0.23379284 -0.14391223 -0.59977204 0.14702296 0.16165532 0.34188548 0.03451783 -0.19560364 -0.48678932 0.16406377 0.25344956 0.3042492 -0.27437875 0.29035735 -0.19702207 0.11699155 0.32257342 -0.21496665 0.37101662 0.29536384 0.012243123 0.016264524 -0.26167807 0.24889763 -0.07930218 0.032813203 -0.3165781 0.55431986 -0.16162425 0.21894175 0.046941053 0.5304969 0.4911676 0.18908411 0.66674525 0.22858928 -0.15382242 -0.070829675 0.652861 0.29872572 0.043176863 -0.4920105 0.045519654 -0.09991889
归 -0.26780644 0.30663505 0.12602015 0.056559496 0.017021937 -0.5619094 0.22300175 0.5725532 -0.33742812 -0.20944361 -0.12614007 -0.28066918 -0.12716947 0.076121256 0.112788446 -0.18299669 0.027054872 -0.43787816 -0.15373991 -0.5611631 0.24504834 0.20623694 0.17745255 -0.3159388 -0.08165541 0.01935298 -0.26449686 -0.2776235 -0.3767231 0.0060730204 0.31269455 0.09978902 0.04955034 -0.018065993 -0.01664117 0.41567254 -0.0105123455 -0.26851577 -0.3602392 -0.50771934 -0.011692434 -0.10781489 -0.014013847 -0.15708174 0.28716463 -0.029191718 -0.109471396 0.017470483 0.17724343 0.18934491 0.26697657 -0.32472643 -0.202758 -0.018226795 -0.34830585 0.38817462 0.2137774 -0.13464242 -0.56279117 0.12901638 0.14672704 0.32775956 0.038624443 -0.18526745 -0.4540113 0.14988407 0.23350787 0.277157 -0.23533943 0.25928035 -0.16940486 0.10441585 0.2837834 -0.19137287 0.346816 0.27707648 0.007953889 0.016076772 -0.2400119 0.22805879 -0.072199024 0.030097645 -0.29082268 0.4982879 -0.16083068 0.21074127 0.046366632 0.48428226 0.44279608 0.18651167 0.59963846 0.20980468 -0.12985748 -0.06327718 0.60659194 0.27671692 0.050173324 -0.45440358 0.02650634 -0.10428529
莫 -0.29632613 0.34357288 0.15251864 0.061416235 0.0048440085 -0.6195832 0.24181168 0.629845 -0.38114816 -0.22318897 -0.13855065 -0.3053314 -0.1354053 0.08121002 0.116352595 -0.20220387 0.043784518 -0.49531046 -0.16560824 -0.6133453 0.26751384 0.21767694 0.20499703 -0.3580196 -0.085843936 0.035787713 -0.30132246 -0.30156565 -0.40006566 0.013663451 0.35259864 0.1166408 0.06131178 -0.03067788 -0.012592578 0.4467325 -0.017010069 -0.3185355 -0.40220112 -0.5691664 -0.020464385 -0.11397244 -0.0015850082 -0.1839293 0.3082681 -0.025270965 -0.11146514 0.017988537 0.17877619 0.20291899 0.2941126 -0.34512058 -0.23440634 -0.013447325 -0.38525122 0.41047516 0.23190519 -0.14712545 -0.62060624 0.1416172 0.16066873 0.35869795 0.027653737 -0.18562956 -0.4888056 0.15827543 0.26954138 0.3133246 -0.27047768 0.29896045 -0.1892067 0.12126821 0.32181573 -0.21620803 0.37841326 0.28943574 0.008327421 0.016782869 -0.25198895 0.2641311 -0.08160902 0.0261395 -0.31259564 0.55536616 -0.17728987 0.22199133 0.05094154 0.5359709 0.48871216 0.20483363 0.68007857 0.21931031 -0.14565207 -0.08283171 0.65617186 0.30822712 0.04570124 -0.49044362 0.032865923 -0.10643652
行 -0.29094973 0.33445063 0.14136016 0.059605353 0.014287661 -0.6184598 0.24214336 0.61943763 -0.3749639 -0.2330165 -0.14589977 -0.30907434 -0.13450122 0.082514495 0.12953395 -0.18417788 0.029175404 -0.47420326 -0.14967717 -0.6022842 0.26860586 0.22459213 0.19188492 -0.34076348 -0.07900236 0.03726622 -0.29697385 -0.29131174 -0.38858107 0.009738843 0.331527 0.12485458 0.045942497 -0.027439414 -0.0114792865 0.4549681 -0.0040562893 -0.30580994 -0.40069935 -0.5406431 -0.008964169 -0.11753622 -0.013423375 -0.18275176 0.3050519 -0.021679003 -0.10879335 0.021858266 0.18111429 0.19327168 0.291782 -0.3475527 -0.22586627 -0.009180399 -0.36788937 0.42010996 0.22105066 -0.15002689 -0.59772015 0.14366093 0.15073933 0.3434109 0.03713151 -0.1830775 -0.46935168 0.15711127 0.24945123 0.3005664 -0.26549485 0.2932786 -0.1946124 0.11431296 0.31216556 -0.21267623 0.36056468 0.29383433 -0.0032745453 0.010577229 -0.24944054 0.25648835 -0.079927966 0.03417735 -0.30156627 0.53307295 -0.16878405 0.22223784 0.053177174 0.5262967 0.49146497 0.19379552 0.65598 0.22069962 -0.15078261 -0.07585609 0.649509 0.29240948 0.04782614 -0.48878965 0.03718157 -0.098688945
乐 -0.31955788 0.35046595 0.15703647 0.04604403 0.0032879284 -0.6645349 0.25329664 0.6641992 -0.39706317 -0.24542588 -0.1587793 -0.32637325 -0.15644234 0.08702955 0.1413962 -0.1997673 0.046881616 -0.5258971 -0.16187213 -0.6509279 0.29325768 0.23894015 0.22438572 -0.38939303 -0.10626433 0.04239416 -0.31361094 -0.31569722 -0.4217975 0.012538684 0.37663513 0.12629911 0.047550622 -0.031238662 -0.01802198 0.46995637 -0.0048433663 -0.3185908 -0.43521127 -0.58458 -0.0066798213 -0.11370289 0.0058668936 -0.20240527 0.33650514 -0.029057657 -0.12300554 0.025003543 0.19709355 0.21312304 0.30793872 -0.36699405 -0.22887339 -0.008613154 -0.41036552 0.45151132 0.2515506 -0.14344186 -0.638178 0.1540198 0.16847682 0.37150708 0.0339967 -0.19437456 -0.50951934 0.17099667 0.27805865 0.31839225 -0.27577755 0.31791922 -0.2065115 0.12651442 0.33144388 -0.2265702 0.40811318 0.30803058 0.0118792225 0.013859006 -0.27622813 0.26820952 -0.08160041 0.03296392 -0.3334329 0.5906273 -0.17905605 0.23536633 0.041360892 0.57590574 0.5077386 0.21633719 0.71133125 0.23210236 -0.1621895 -0.09367452 0.6941654 0.33170354 0.06560015 -0.5266025 0.04100573 -0.10534829
命 -0.2741175 0.3016438 0.13178886 0.039151292 0.0012199237 -0.5743648 0.23081264 0.5771022 -0.3503766 -0.21462359 -0.1287619 -0.27650183 -0.13314395 0.07526864 0.10683885 -0.17071226 0.033575464 -0.43197715 -0.15706119 -0.56496614 0.23349936 0.20166628 0.17747426 -0.31607077 -0.08784399 0.021680973 -0.26083443 -0.28335223 -0.36396718 0.0021601836 0.32546088 0.12155983 0.051639147 -0.018132927 -0.00965546 0.4045469 -0.0040623224 -0.28835347 -0.3502089 -0.50628626 -0.018059673 -0.11112722 0.004452535 -0.1686125 0.29567388 -0.0242806 -0.093171 0.020247964 0.17974913 0.1796273 0.2653956 -0.30666873 -0.19730103 -0.015529385 -0.3355427 0.38582903 0.21644416 -0.12150573 -0.5441674 0.14284784 0.15809713 0.3186168 0.030167786 -0.17288268 -0.43882895 0.14070156 0.22789642 0.27046716 -0.24377543 0.27727443 -0.17733832 0.094551876 0.29408076 -0.19035421 0.34288806 0.26847553 0.00860659 0.016928384 -0.23079948 0.23009253 -0.056918655 0.029752484 -0.2937272 0.5083898 -0.14834182 0.20361203 0.040331926 0.48749852 0.45324135 0.18671948 0.60450464 0.19289868 -0.13038923 -0.07097653 0.6002269 0.26840317 0.05732516 -0.46014804 0.04225953 -0.11007577
自 -0.28345117 0.3403299 0.14187986 0.048268788 0.011665438 -0.6171258 0.23537004 0.6318071 -0.3730319 -0.22361334 -0.15012929 -0.29474565 -0.14536306 0.08033511 0.112001464 -0.18674576 0.041705597 -0.473508 -0.16813879 -0.61979234 0.26166904 0.22099806 0.19596373 -0.3650332 -0.09033057 0.030337619 -0.30319345 -0.30349675 -0.40014473 0.019884875 0.3422874 0.11878451 0.047657948 -0.031758867 -0.016880209 0.4574822 -0.009306631 -0.30510837 -0.39256546 -0.5641558 -0.01841998 -0.12017002 0.0011804468 -0.18160026 0.30783617 -0.030017404 -0.1121458 0.014384123 0.1847754 0.19638331 0.2804247 -0.34895355 -0.2286955 -0.018236972 -0.36975074 0.40923542 0.22059976 -0.14858949 -0.6109082 0.1455467 0.16652119 0.3448757 0.037328936 -0.18524085 -0.47241673 0.159199 0.26637292 0.2950752 -0.27276093 0.28276336 -0.19849384 0.104293555 0.3081833 -0.2112796 0.37339085 0.28634533 -0.0020378036 0.016141886 -0.2539351 0.25587574 -0.0648041 0.038618475 -0.3161847 0.5511516 -0.17369173 0.21873422 0.050685722 0.540481 0.48304185 0.19798604 0.6545719 0.22103323 -0.13430174 -0.08239938 0.6536042 0.29513472 0.0418504 -0.48398224 0.03322389 -0.10269259
忧 -0.2250881 0.24512304 0.0951902 0.046855696 0.018121615 -0.45276985 0.19152643 0.45993927 -0.29112312 -0.15676115 -0.109758995 -0.2185618 -0.09877289 0.056857817 0.08072112 -0.14462493 0.036444042 -0.36475533 -0.11675706 -0.4601682 0.20769913 0.16066924 0.1640227 -0.27067223 -0.07290526 0.012501022 -0.22141017 -0.21466145 -0.29933092 0.018418463 0.25567716 0.09310613 0.041836448 -0.00511549 -0.014747895 0.34012434 -0.02062397 -0.22227474 -0.29360554 -0.4099757 -0.004830547 -0.08675393 -0.005654118 -0.1368122 0.23238683 -0.016401423 -0.07506268 0.008501484 0.14770398 0.15131524 0.21223392 -0.2544349 -0.168216 -0.0116014555 -0.27885792 0.31242523 0.17060958 -0.11236745 -0.45647964 0.094597824 0.11994214 0.25031698 0.022991411 -0.14868404 -0.37161198 0.11785166 0.19439498 0.22245573 -0.20366716 0.2194073 -0.13868746 0.07870001 0.23350468 -0.15369582 0.27218115 0.20361197 0.014840119 0.013902373 -0.19154052 0.19464609 -0.051828913 0.031696744 -0.23640327 0.41490075 -0.12258399 0.15418725 0.030454919 0.40298367 0.35962862 0.14481522 0.50113195 0.1584875 -0.108572334 -0.06622427 0.47693053 0.21625224 0.04318668 -0.36493716 0.033506464 -0.07854039
曰 -0.27613777 0.3212285 0.1303943 0.05201743 0.022484275 -0.5850722 0.2377205 0.58399445 -0.35116193 -0.20803009 -0.13095956 -0.30014408 -0.13627143 0.07772431 0.10714557 -0.19061913 0.041968685 -0.46422747 -0.1561563 -0.5721752 0.24648075 0.21949889 0.19454205 -0.32998917 -0.08569135 0.02203819 -0.2876252 -0.2848518 -0.3849086 0.006804154 0.33244854 0.106046826 0.044856694 -0.028721027 -0.022190778 0.41616303 -0.013850894 -0.2781857 -0.3641675 -0.53364325 -0.023174815 -0.110852905 -0.014023861 -0.17724462 0.29321012 -0.014887227 -0.11447035 0.023714704 0.18041904 0.19620976 0.26639223 -0.33719486 -0.20311922 -0.023594894 -0.34851983 0.39498618 0.22550392 -0.13518961 -0.57399565 0.14431381 0.14626846 0.3200781 0.037315194 -0.1847606 -0.46274316 0.14422962 0.23206738 0.29083592 -0.25100157 0.2723779 -0.17926206 0.11450306 0.30601975 -0.2057728 0.34811062 0.2650967 -0.0046544895 0.0062929615 -0.24250469 0.22793007 -0.0739472 0.02695801 -0.29291877 0.52181894 -0.15007734 0.19885135 0.04152902 0.50181156 0.47251397 0.18552211 0.6278818 0.2136345 -0.13224934 -0.08350677 0.62349063 0.29415086 0.052825496 -0.46252182 0.028513705 -0.10712485
靡 -0.28930107 0.33714244 0.1313914 0.056855544 0.0069991197 -0.6206596 0.25353155 0.627804 -0.37941006 -0.22399236 -0.1480313 -0.31247616 -0.13593893 0.09107458 0.11201862 -0.18858743 0.0466419 -0.49187458 -0.16017953 -0.62201786 0.279467 0.22298767 0.2147007 -0.3483982 -0.08440681 0.02203581 -0.29901078 -0.30392474 -0.40387502 0.014354063 0.35811 0.12786844 0.06601344 -0.032605298 -0.022366162 0.45863327 -0.0097813355 -0.30930308 -0.40671837 -0.56798315 -0.02405193 -0.105467 -0.0012586259 -0.19319499 0.32328105 -0.013744257 -0.12012768 0.016573977 0.19220106 0.21345401 0.27868193 -0.35168123 -0.23043951 -0.018313542 -0.37675667 0.4156478 0.22856976 -0.14530873 -0.6202041 0.1557474 0.16985872 0.3432203 0.03185387 -0.19172895 -0.49869862 0.14942549 0.2520718 0.30498084 -0.25847918 0.30384508 -0.18938103 0.10590597 0.32850128 -0.20779292 0.37792894 0.28487137 0.0034071675 0.011936813 -0.2672927 0.25725955 -0.07277976 0.022502786 -0.32892695 0.5630811 -0.17776221 0.21569659 0.056609068 0.53739667 0.49026507 0.19334352 0.66999996 0.23230517 -0.15261565 -0.08472171 0.65673435 0.3031848 0.043435227 -0.51328915 0.046770554 -0.1022865
日 -0.29039952 0.31308064 0.13301116 0.045681622 0.021952366 -0.598629 0.23039106 0.6030334 -0.37618154 -0.21817742 -0.1419877 -0.2982216 -0.13610373 0.0850726 0.12296287 -0.19334643 0.04267988 -0.47959942 -0.16510224 -0.60148627 0.25741944 0.21556726 0.19475369 -0.3443908 -0.07383857 0.03590096 -0.28515276 -0.2825098 -0.3889196 0.011010487 0.32477936 0.12321183 0.042402994 -0.024544459 -0.0067539513 0.4365142 -0.012383295 -0.3042636 -0.37882876 -0.53166926 -0.024698174 -0.11332998 0.0038732453 -0.17244872 0.30594838 -0.019072495 -0.11929552 0.032661453 0.17956169 0.19032657 0.2792577 -0.337816 -0.22178154 -0.00986832 -0.36559582 0.39729887 0.23019028 -0.13338338 -0.5793482 0.1425884 0.15707088 0.33142242 0.037274104 -0.17625126 -0.47009286 0.14808786 0.2476584 0.2976194 -0.26584885 0.28942975 -0.18271686 0.12030472 0.30177432 -0.2101951 0.3546619 0.2752114 0.009795134 0.015850669 -0.24746002 0.24795885 -0.07947086 0.02852686 -0.31488067 0.53703797 -0.1651821 0.22263779 0.041956488 0.52255255 0.47858942 0.19456697 0.6422202 0.2273518 -0.13715541 -0.0680543 0.6390456 0.30254948 0.05496415 -0.489634 0.031841647 -0.10447418
山 -0.29807493 0.34029657 0.14228213 0.058007095 0.0074406425 -0.6255891 0.25649744 0.634738 -0.37581995 -0.22484067 -0.14474992 -0.31757075 -0.14392504 0.06905589 0.11973945 -0.20695661 0.03495957 -0.49803567 -0.15605588 -0.622757 0.28302938 0.21325234 0.20300275 -0.35449323 -0.09434488 0.030121395 -0.29943338 -0.30537677 -0.41290873 0.0017731768 0.35680583 0.122317865 0.059877474 -0.03410415 -0.009293394 0.44520745 -0.0076306574 -0.30066562 -0.40693617 -0.5531281 -0.024049386 -0.12619713 -0.0031075242 -0.17796779 0.30665094 -0.029976852 -0.09971227 0.025421795 0.19177514 0.20521693 0.28520304 -0.34898978 -0.22183062 -0.0065523083 -0.3879358 0.4223623 0.2395643 -0.15370364 -0.622101 0.15847191 0.17085119 0.3488165 0.042700447 -0.19304055 -0.49243346 0.15619324 0.25633457 0.3169872 -0.26479304 0.28320855 -0.19394112 0.11079256 0.32712922 -0.21270381 0.3855279 0.29703167 0.0012270578 0.020902146 -0.2545714 0.24875593 -0.080321364 0.028989539 -0.32483768 0.557891 -0.18130496 0.21393834 0.05000945 0.5375941 0.50043136 0.19463693 0.6696276 0.22889812 -0.13835432 -0.078809336 0.67228144 0.31109503 0.045126 -0.5027404 0.02979201 -0.11617641
将 -0.29911032 0.3250271 0.15125881 0.052474968 0.011256338 -0.6288569 0.23918666 0.61786324 -0.36921114 -0.2332808 -0.13931301 -0.3132233 -0.13552794 0.08424771 0.12438858 -0.19721803 0.03730202 -0.48802134 -0.15407628 -0.60969037 0.26981455 0.22591808 0.20996086 -0.36627465 -0.08086754 0.031111263 -0.30194262 -0.2940735 -0.40531528 0.02219348 0.3434166 0.12947834 0.05741812 -0.027655875 -0.020706004 0.46413776 -0.012888952 -0.31194165 -0.39896682 -0.5636825 -0.013945689 -0.12209802 0.0042952215 -0.17969257 0.32398322 -0.012650898 -0.11699406 0.026744913 0.18583497 0.19210209 0.29632655 -0.33975026 -0.21125348 -0.021296116 -0.38781142 0.42375734 0.22205597 -0.13668807 -0.60632396 0.15495203 0.1691283 0.3535983 0.03220737 -0.19134322 -0.47278005 0.14914455 0.2579625 0.30757344 -0.2621684 0.29856506 -0.19743216 0.118340105 0.31458572 -0.2067277 0.38441122 0.2976745 0.0010734552 0.010699167 -0.24832398 0.26237053 -0.06794037 0.02889782 -0.31865972 0.54525226 -0.17345233 0.2256094 0.04242082 0.5281346 0.49908307 0.2074472 0.6756331 0.22817732 -0.1559256 -0.08892283 0.6618443 0.2962196 0.041783296 -0.4965231 0.035725527 -0.1191895
月 -0.2958829 0.33165812 0.13504358 0.049349725 0.015619708 -0.6372305 0.24489093 0.6495421 -0.37795028 -0.2401857 -0.13501406 -0.30330098 -0.1566063 0.0787348 0.13063757 -0.18939891 0.033269674 -0.5051877 -0.16115338 -0.63702303 0.26953608 0.22778903 0.21492523 -0.37396756 -0.08184823 0.030054627 -0.29907283 -0.3027781 -0.41284835 0.02372276 0.3487885 0.113429196 0.06394007 -0.029161416 -0.008062912 0.46058354 -0.023691004 -0.32251847 -0.40063572 -0.57150453 -0.014177515 -0.12666693 -0.009663013 -0.19174866 0.33186814 -0.030856479 -0.110551775 0.024031442 0.1918781 0.21748076 0.28996584 -0.36603677 -0.22678362 -0.0076551996 -0.37430444 0.42144006 0.23783797 -0.14171512 -0.62779737 0.15655634 0.15791601 0.36312723 0.03945487 -0.1897933 -0.5020176 0.16155693 0.27346098 0.32435897 -0.28420818 0.30572698 -0.18994898 0.114324324 0.33466792 -0.22277366 0.37852427 0.2901883 0.0038238482 0.0128361145 -0.26626468 0.2532552 -0.06744871 0.025229307 -0.3319563 0.57245743 -0.16220838 0.22865629 0.045922603 0.5456535 0.4995606 0.21183015 0.6719641 0.23292625 -0.14223444 -0.08374249 0.67065686 0.31760857 0.062870614 -0.506978 0.048507795 -0.119583726
南 -0.29175654 0.33298004 0.13681445 0.05085049 0.009383284 -0.62936044 0.24986337 0.6391632 -0.386104 -0.23797497 -0.14667094 -0.29890588 -0.15715782 0.08988975 0.12146268 -0.19237444 0.033620622 -0.4928404 -0.15802561 -0.6084527 0.2620331 0.22143067 0.20838156 -0.35005602 -0.082247384 0.02440985 -0.28610665 -0.30983096 -0.40793326 0.023000741 0.35344872 0.11137623 0.052577835 -0.034158617 -0.015404971 0.46117985 -0.023750547 -0.2990818 -0.39159864 -0.5639345 -0.027517224 -0.11887429 -0.007356682 -0.17548685 0.32500306 -0.0186735 -0.112484895 0.026488194 0.18132266 0.19970492 0.28695345 -0.33907774 -0.22937474 -0.024195194 -0.37637043 0.42127496 0.22353657 -0.15179671 -0.6116646 0.14400865 0.15260383 0.34802997 0.03166987 -0.18569757 -0.48467022 0.1583328 0.2612755 0.30524078 -0.26262257 0.29329485 -0.18605562 0.11195378 0.31017274 -0.21001652 0.38501337 0.28892052 0.0001829939 0.008856971 -0.24805747 0.25256968 -0.06383464 0.023505663 -0.3068468 0.54093546 -0.16126332 0.22163267 0.04986768 0.52895993 0.5008471 0.20481168 0.6601057 0.21585065 -0.13687886 -0.08568989 0.65024644 0.3090782 0.04787725 -0.5060399 0.04957738 -0.11240288
岂 -0.2868485 0.32080022 0.13065453 0.045954026 0.009100689 -0.6051263 0.2311685 0.6143866 -0.3560896 -0.2265335 -0.13317512 -0.30320573 -0.13072662 0.085046634 0.11939233 -0.19282639 0.03169461 -0.46217898 -0.15959471 -0.5892036 0.26757094 0.21974955 0.19291218 -0.33703712 -0.08771418 0.020640034 -0.27388987 -0.30229238 -0.38841408 0.01114161 0.32230222 0.114086606 0.058988772 -0.02616667 -0.024153516 0.4427945 -0.016810281 -0.30389515 -0.38092956 -0.5384256 -0.0035686698 -0.1103606 0.006314211 -0.18507414 0.30694413 -0.011143512 -0.107208185 0.017493492 0.17997698 0.1946164 0.26620996 -0.343381 -0.21318766 -0.01669497 -0.35105902 0.4020477 0.22984895 -0.13690737 -0.57817185 0.13202903 0.15961577 0.33447406 0.037531756 -0.18703279 -0.47226405 0.15968497 0.24619737 0.2964727 -0.2618849 0.28738973 -0.17428866 0.10993546 0.3139419 -0.2024428 0.3698615 0.29274374 0.004398428 0.0077013946 -0.25974435 0.25325984 -0.07281206 0.033403497 -0.30691934 0.5375212 -0.15401717 0.21443166 0.048441738 0.5222028 0.47535828 0.19643988 0.64210355 0.21524124 -0.13167764 -0.07826525 0.63185686 0.30471826 0.03738992 -0.48133695 0.03225612 -0.0973783
采 -0.25541824 0.29107192 0.13345228 0.043189976 0.0016075011 -0.55729276 0.21549779 0.5534089 -0.34112638 -0.20937763 -0.1179171 -0.26156953 -0.13324921 0.07361702 0.104227476 -0.17582047 0.021876361 -0.43292627 -0.13812573 -0.5362071 0.24679986 0.20364085 0.19041546 -0.3277388 -0.08207752 0.01916667 -0.25652006 -0.26084304 -0.3647216 0.012187034 0.31377545 0.10685589 0.04598221 -0.031152384 0.003169801 0.3957968 -0.021994835 -0.2773092 -0.36102134 -0.5010791 -0.02837413 -0.102323934 -0.014387703 -0.16345152 0.28922892 -0.014599405 -0.09868338 0.019703247 0.18236658 0.18007624 0.26077428 -0.2998903 -0.20972526 -0.024822772 -0.32330364 0.37762997 0.2018097 -0.12433797 -0.54553014 0.12175002 0.13623114 0.31902754 0.02693575 -0.18233216 -0.44187242 0.1476588 0.22736832 0.26694047 -0.23754291 0.25309438 -0.1740845 0.09795616 0.29060385 -0.186996 0.32943234 0.2662751 0.009771295 0.00034388958 -0.23679431 0.2312443 -0.07870627 0.029904312 -0.29318157 0.4996129 -0.1545762 0.184506 0.037734598 0.47402456 0.448772 0.18511641 0.5911578 0.20174094 -0.12221553 -0.069185495 0.57800245 0.27228782 0.047891542 -0.4328368 0.031257775 -0.11204524
德 -0.29087684 0.34545627 0.13368341 0.049352918 0.008723939 -0.6152584 0.25585705 0.6269212 -0.37283102 -0.22217329 -0.13723782 -0.31614044 -0.14251253 0.07751873 0.119873025 -0.1888674 0.03429453 -0.47384435 -0.16101351 -0.61211914 0.26482955 0.21179937 0.19337879 -0.35168537 -0.09582912 0.03253686 -0.28976965 -0.31108207 -0.40552127 0.005887225 0.3357086 0.120040126 0.064303435 -0.031067342 -0.020926226 0.46051672 -0.0052274023 -0.2963253 -0.40731567 -0.5529981 -0.021872995 -0.10753846 0.0027403955 -0.18516412 0.32404742 -0.02647039 -0.10698812 0.026466964 0.19288939 0.20605917 0.28243273 -0.34395617 -0.22775044 -0.022908758 -0.3740217 0.40759647 0.2291995 -0.14346723 -0.59795535 0.14073014 0.16041732 0.34527797 0.026956849 -0.19410412 -0.47893876 0.14947508 0.25640562 0.31513 -0.2670166 0.28917256 -0.1843764 0.11485516 0.31843323 -0.19831714 0.38346058 0.2943918 0.009653802 0.0074492185 -0.24751422 0.25766715 -0.07859412 0.025591921 -0.31825823 0.5422925 -0.16377155 0.20971583 0.046207827 0.5367017 0.49313524 0.19885594 0.6533134 0.22802773 -0.13933426 -0.0753332 0.6644052 0.3087804 0.05695586 -0.48648942 0.03758016 -0.1103625
百 -0.26968366 0.29970464 0.13560525 0.04070551 0.008540583 -0.5733542 0.23378703 0.57897925 -0.34854937 -0.21274205 -0.13392963 -0.28355664 -0.13870478 0.06938661 0.112090185 -0.17283358 0.03394586 -0.43816862 -0.14908184 -0.56714493 0.23751651 0.21058613 0.19532399 -0.33385035 -0.07586029 0.037470788 -0.27570808 -0.28154835 -0.38114387 0.015583053 0.3118519 0.112415574 0.060142208 -0.0305313 -0.024494827 0.4179085 -0.022004643 -0.29140556 -0.37492308 -0.51419365 -0.0152713545 -0.1036593 -0.005195779 -0.15707245 0.29968733 -0.024809228 -0.09448233 0.010575659 0.17141634 0.18728764 0.26344082 -0.32487944 -0.20364647 -0.014370558 -0.35513318 0.3787252 0.20407133 -0.12930678 -0.5601264 0.1290973 0.15488791 0.32189178 0.033787582 -0.17054862 -0.44966918 0.15021078 0.22888327 0.27863702 -0.251975 0.2702759 -0.18387389 0.11409508 0.29920912 -0.20103638 0.35120785 0.27615964 -0.00069577893 0.015129452 -0.24395888 0.24181287 -0.06267076 0.028608158 -0.300928 0.5051321 -0.15632036 0.20339996 0.052695412 0.4876262 0.44067442 0.17273432 0.60990036 0.20935668 -0.13209283 -0.07578498 0.6134287 0.28171626 0.05348415 -0.45183402 0.028496765 -0.10188098
国 -0.2693952 0.28636965 0.121302225 0.052088965 0.010281718 -0.5387372 0.2139654 0.5483435 -0.33069322 -0.19772677 -0.12663835 -0.27375734 -0.13344546 0.076667406 0.09882839 -0.17892669 0.02243193 -0.41817525 -0.13803186 -0.53313726 0.24611996 0.1881435 0.18553975 -0.31048104 -0.07133534 0.023815354 -0.24830435 -0.27244696 -0.34663582 0.017029643 0.30335724 0.11347588 0.05599978 -0.02030021 -0.0072389385 0.40081042 -0.013064771 -0.2610497 -0.34404486 -0.49547327 -0.012983692 -0.10240994 0.0014486909 -0.16472392 0.27418146 -0.016781947 -0.09427015 0.011671937 0.17349628 0.17369394 0.2576691 -0.3027981 -0.18636541 -0.019309469 -0.3342413 0.36923984 0.19829845 -0.11976782 -0.54161006 0.1337685 0.14363058 0.30744767 0.03203114 -0.1724254 -0.4288493 0.1275421 0.2294818 0.27731457 -0.24063599 0.26776683 -0.16535124 0.09459904 0.278177 -0.18206 0.32363632 0.25905097 0.009905625 0.016779762 -0.21805273 0.22569086 -0.066764824 0.02042701 -0.2710343 0.47768164 -0.14933641 0.19126457 0.048989926 0.46220362 0.4348214 0.17580509 0.58141255 0.18888403 -0.13657628 -0.06581476 0.56918544 0.27501956 0.042336814 -0.44774607 0.02850404 -0.08727243
孔 -0.2936935 0.33668312 0.12973982 0.039483707 0.008169004 -0.6121739 0.23563689 0.6098402 -0.38157344 -0.2253187 -0.13228968 -0.31198508 -0.14760336 0.08056182 0.12361585 -0.19922885 0.04280625 -0.48705053 -0.15382867 -0.5952051 0.2701987 0.2255712 0.21032424 -0.34902462 -0.095474415 0.035767194 -0.29832134 -0.30534142 -0.39164403 0.0042572333 0.33381888 0.114907555 0.05790344 -0.017464982 -0.013284102 0.4512211 -0.017397648 -0.29869148 -0.398727 -0.55247563 -0.022951553 -0.11313673 0.0015823113 -0.17365476 0.30683967 -0.01625952 -0.10277388 0.015952038 0.1807009 0.19804186 0.2767851 -0.33539456 -0.20947087 -0.006647664 -0.3608065 0.4016675 0.22574076 -0.14977416 -0.60434043 0.13658267 0.16363293 0.3449226 0.024914665 -0.18162012 -0.4755086 0.1538408 0.25103658 0.2997016 -0.2660342 0.2976323 -0.18642865 0.105735175 0.319456 -0.20693587 0.36610654 0.296235 0.0021197975 0.019113138 -0.25670573 0.24201871 -0.0773981 0.026226513 -0.31495407 0.5407624 -0.15917683 0.22325131 0.046424206 0.5301305 0.48090404 0.1957132 0.6544899 0.21886198 -0.14838453 -0.08177691 0.64894444 0.30507287 0.040573567 -0.48515984 0.035923537 -0.11031477
实 -0.27565286 0.30038294 0.12320332 0.03555474 0.0102726165 -0.5736609 0.21769774 0.5637068 -0.33333802 -0.20984839 -0.13868885 -0.27229378 -0.13958378 0.06820597 0.11367457 -0.18487154 0.02391765 -0.44834405 -0.13969244 -0.54777795 0.24842153 0.20611559 0.19265582 -0.3298911 -0.069019765 0.03505693 -0.2610531 -0.26519853 -0.37809214 0.009818699 0.3235432 0.110444024 0.040244754 -0.02327632 -0.018938312 0.40844998 -0.015655337 -0.26887375 -0.36200467 -0.50442463 -0.016155401 -0.095969744 -0.011922828 -0.17779323 0.28228712 -0.02803528 -0.106942676 0.020522274 0.17395222 0.18630204 0.2662847 -0.3182383 -0.20110509 -0.013437701 -0.33339992 0.38977492 0.208154 -0.12950699 -0.55943817 0.12879246 0.13848934 0.31812793 0.025277205 -0.18001145 -0.43836954 0.14397183 0.22502092 0.2819578 -0.23464721 0.27119327 -0.17538054 0.11558359 0.29955882 -0.19084021 0.3448594 0.25515443 -0.0004368134 0.011118838 -0.22584665 0.22973755 -0.07379143 0.034031007 -0.29758972 0.5090676 -0.1471306 0.1891083 0.045837484 0.49391958 0.43725616 0.17023312 0.61186934 0.20874926 -0.119271815 -0.08287815 0.5967905 0.2882387 0.044766534 -0.4550543 0.025651379 -0.10583856
见 -0.2928433 0.33334735 0.13459411 0.04085392 0.022138376 -0.6036993 0.23625988 0.6042519 -0.36290124 -0.22402008 -0.13711824 -0.2986016 -0.12992992 0.08370078 0.11858546 -0.1950888 0.03983565 -0.4672983 -0.16421019 -0.597322 0.25675118 0.21658103 0.19066161 -0.35214442 -0.07498333 0.023273107 -0.2744223 -0.28971413 -0.3972864 0.0063237688 0.33154845 0.12146441 0.04418867 -0.025756037 -0.023193046 0.44499567 -0.016819216 -0.29187822 -0.38643384 -0.5457344 -0.015955744 -0.1094771 0.00021008844 -0.18489629 0.2983483 -0.024941407 -0.10384524 0.017113887 0.18327597 0.20051576 0.2797902 -0.3348254 -0.22146977 -0.015811376 -0.36873916 0.3963276 0.23275469 -0.14544223 -0.59662426 0.14322786 0.16544127 0.3362764 0.035233904 -0.19044665 -0.47489017 0.1424574 0.24136098 0.28412986 -0.2649177 0.2899325 -0.1730125 0.10905222 0.3079163 -0.19403443 0.36329114 0.27621534 0.009333256 0.01356704 -0.25206184 0.23818491 -0.05811388 0.040745266 -0.3149535 0.5246146 -0.1595711 0.21048848 0.03552671 0.5246756 0.4670966 0.19517691 0.6521441 0.21873434 -0.1353776 -0.07958885 0.6246296 0.29696912 0.048667856 -0.4917361 0.04434992 -0.11463576
酒 -0.27948144 0.31859818 0.12524559 0.036979284 0.019548645 -0.60489833 0.24354972 0.6010589 -0.3504621 -0.21199799 -0.124247186 -0.28494292 -0.14752458 0.063061416 0.11277472 -0.18780106 0.03861234 -0.46327662 -0.15740074 -0.5825634 0.2550639 0.20519781 0.20284612 -0.35363525 -0.08496152 0.02168864 -0.273935 -0.29518023 -0.38492003 0.0045277867 0.3414678 0.10933729 0.05623119 -0.016668774 -0.004848708 0.42891002 -0.02031993 -0.30285484 -0.37762848 -0.54455924 -0.008802091 -0.11082049 0.0054343543 -0.18018062 0.30341244 -0.020432632 -0.118439086 0.030686924 0.17755663 0.19902177 0.27667087 -0.33149102 -0.21050546 -0.0049901144 -0.370701 0.41052037 0.2307488 -0.13851553 -0.57872164 0.14597203 0.16175102 0.33380097 0.03486811 -0.18637441 -0.46006724 0.1594511 0.2394413 0.2964943 -0.26562005 0.27772832 -0.19591619 0.11385174 0.30417418 -0.20090477 0.36626557 0.27366528 0.007351987 0.0070003886 -0.25254217 0.23489164 -0.08008157 0.041082803 -0.31324255 0.5357451 -0.165704 0.21043755 0.047541514 0.5032583 0.46280807 0.18025729 0.62915236 0.21344092 -0.14432257 -0.07609564 0.634338 0.28595075 0.044879705 -0.4816094 0.029603373 -0.113223016
车 -0.27893525 0.30491486 0.122480735 0.038776398 0.016043268 -0.59055024 0.22652903 0.59572726 -0.34540242 -0.2198065 -0.12529106 -0.29567763 -0.13506612 0.08264946 0.111654416 -0.17067245 0.034372795 -0.44763666 -0.14483538 -0.5833502 0.2459029 0.19991082 0.19055137 -0.34304452 -0.08179249 0.019049449 -0.274803 -0.28293872 -0.37117916 0.0027479369 0.31826574 0.11994428 0.05968791 -0.022630382 -0.012817182 0.4174606 -0.014308865 -0.2962126 -0.37932155 -0.5207317 -0.015193645 -0.101157725 -0.016679186 -0.16762663 0.29806793 -0.02238064 -0.10283515 0.027993316 0.1670251 0.1890067 0.27305022 -0.32520223 -0.20601918 -0.007806644 -0.3453207 0.3941647 0.22350661 -0.14517544 -0.56052953 0.14421393 0.14642623 0.32300127 0.03972725 -0.17373636 -0.4648088 0.14690883 0.24173327 0.28838986 -0.24094798 0.26682162 -0.16837427 0.09507575 0.30430356 -0.18802948 0.3458528 0.2642354 0.0122986 0.0015865293 -0.24897452 0.23504981 -0.07458491 0.038913824 -0.28886598 0.51466286 -0.1487303 0.21636097 0.050802454 0.50232935 0.46470755 0.19152087 0.62837505 0.21797103 -0.1417388 -0.06448431 0.62432367 0.2967743 0.038825795 -0.47012115 0.037394833 -0.0993961
谓 -0.23967136 0.26662567 0.11691108 0.05180366 0.007844178 -0.48616233 0.20088668 0.49130824 -0.2955414 -0.18787315 -0.10985901 -0.23613296 -0.10615669 0.051806368 0.08983173 -0.14938354 0.030113997 -0.385625 -0.12159613 -0.47718158 0.20182978 0.18661861 0.15529439 -0.28236666 -0.05686549 0.026385926 -0.2367103 -0.23500347 -0.3226455 0.00259366 0.26078612 0.10051626 0.031994693 -0.01128799 -0.01849685 0.3608083 -0.017072808 -0.2464127 -0.30676812 -0.44759533 -0.009486605 -0.09257013 -0.012493818 -0.15282309 0.2526227 -0.017548786 -0.08076932 0.0070019695 0.14892083 0.15758629 0.21754621 -0.27835274 -0.18452694 -0.018748809 -0.29706773 0.32353964 0.17510451 -0.12415209 -0.4715973 0.11306141 0.13460775 0.27764985 0.03666135 -0.15559186 -0.3916126 0.12432433 0.19039522 0.24640617 -0.19990909 0.23180103 -0.14164907 0.098396644 0.2556634 -0.16081463 0.30373386 0.22952907 -0.0038516412 0.0004817009 -0.20423363 0.19728401 -0.047648042 0.013647924 -0.25399393 0.4421141 -0.13455684 0.16177402 0.041064408 0.41284442 0.378456 0.1463565 0.5242559 0.18432805 -0.10743443 -0.053025603 0.52658796 0.24464494 0.031102039 -0.38282937 0.01801385 -0.090336755
胡 -0.2571435 0.31046256 0.120300956 0.036651608 0.02164299 -0.56131375 0.21631703 0.56820124 -0.3317823 -0.20023037 -0.12878497 -0.2661177 -0.12026364 0.07823497 0.119322956 -0.1809378 0.033117343 -0.4356499 -0.13881567 -0.5384305 0.2469465 0.20407762 0.1893438 -0.3128213 -0.07656621 0.016545236 -0.26584417 -0.2607366 -0.36559695 0.010923322 0.31126544 0.10024492 0.05670841 -0.017757785 -0.011804206 0.41475347 -0.010065118 -0.27282572 -0.3651364 -0.4904932 -0.024506701 -0.092766106 0.0025424259 -0.16194123 0.27313054 -0.0076824776 -0.1026956 0.024306342 0.1648177 0.17570707 0.25670323 -0.32171348 -0.20491162 -0.025560979 -0.3303899 0.3728582 0.20529832 -0.12410271 -0.54839176 0.12402643 0.1484926 0.30685496 0.031829003 -0.16300358 -0.43325573 0.14521363 0.23407401 0.27030197 -0.24274153 0.26896048 -0.16929373 0.10108189 0.2869159 -0.19330022 0.33858576 0.25784582 0.009328013 0.0047712238 -0.23121327 0.2299944 -0.07366118 0.025818514 -0.29370463 0.4940094 -0.14766215 0.19884752 0.04444531 0.4782477 0.44081378 0.17478588 0.6009881 0.20044449 -0.13506097 -0.0768042 0.5802441 0.26546147 0.045941938 -0.43970853 0.027516898 -0.10805105
下 -0.29292855 0.32652515 0.1278498 0.053334884 0.0185357 -0.59309936 0.22689323 0.60756993 -0.37120077 -0.20952384 -0.14109735 -0.29885283 -0.13482247 0.07509061 0.12313091 -0.19161837 0.039860323 -0.47903407 -0.14912994 -0.5938116 0.25292522 0.21397837 0.19703852 -0.3442576 -0.088277385 0.018893642 -0.29119343 -0.2978473 -0.3990966 0.007859901 0.34281173 0.114849076 0.045278456 -0.029102184 -0.011150701 0.4327875 -0.017192544 -0.2999372 -0.37644976 -0.5466988 -0.024981765 -0.10400955 -0.01152472 -0.17197995 0.30517995 -0.009958008 -0.10341498 0.02415405 0.184361 0.19787952 0.2777221 -0.33872837 -0.20979819 -0.009491332 -0.35356727 0.4008317 0.21914834 -0.1316269 -0.5939763 0.1408589 0.14882173 0.34213 0.022959862 -0.18160053 -0.45754382 0.14827503 0.24075581 0.28835046 -0.2521393 0.27728283 -0.1770062 0.10821186 0.3165678 -0.20316397 0.3532526 0.27756184 0.0075246063 0.0052421517 -0.23917444 0.24030317 -0.07647999 0.031464856 -0.3109394 0.5230619 -0.16790326 0.21004243 0.045465577 0.51816136 0.48019275 0.19789176 0.6466699 0.21589203 -0.14533155 -0.06670203 0.63252866 0.3009254 0.048952386 -0.47288266 0.042316213 -0.113679625
弟 -0.2674999 0.30082783 0.12739368 0.03423933 0.020657428 -0.5474945 0.22219105 0.5521857 -0.34102643 -0.1985409 -0.13542339 -0.28023055 -0.12313076 0.056455273 0.10445232 -0.17812853 0.029706651 -0.43945366 -0.13804674 -0.5420989 0.24200737 0.1967014 0.19057414 -0.32659015 -0.06790753 0.01820787 -0.2573925 -0.27739695 -0.35977063 0.0033381132 0.29948443 0.11808257 0.05127763 -0.019213479 -0.02267218 0.41204864 -0.020045076 -0.2752012 -0.361902 -0.5059982 -0.009417387 -0.104345694 0.00025089065 -0.15646741 0.26908213 -0.019728307 -0.10352157 0.0042259605 0.15104169 0.18030526 0.26085952 -0.3130633 -0.2026498 -0.0099233575 -0.3320228 0.35828784 0.21645685 -0.11820741 -0.5514261 0.1288667 0.15078416 0.30538344 0.03204884 -0.17928746 -0.41993597 0.14687097 0.23037633 0.2651783 -0.23773032 0.25305945 -0.1838672 0.11493095 0.2822752 -0.18550494 0.34180775 0.24725537 0.011634884 -0.002817557 -0.23702052 0.23100336 -0.07149472 0.02462918 -0.28929117 0.48089668 -0.1545773 0.19078963 0.056205932 0.4867391 0.4357034 0.17454256 0.58290064 0.21516213 -0.13170706 -0.062463958 0.59972256 0.28015098 0.039687373 -0.4327806 0.042217523 -0.100048654
周 -0.24370126 0.2823472 0.122574806 0.041294586 0.013197826 -0.5183652 0.19092712 0.5126246 -0.3171518 -0.18668476 -0.12153446 -0.2530092 -0.111290365 0.075674966 0.10917109 -0.15666923 0.025538 -0.3957363 -0.13523115 -0.5156836 0.22822158 0.17368723 0.17215252 -0.29679352 -0.07891849 0.02329592 -0.24840617 -0.24045566 -0.33927712 0.0013506423 0.28939268 0.10384865 0.04983557 -0.017285898 -0.016873507 0.36659998 -0.009396269 -0.24285294 -0.3311974 -0.4634036 -0.011774425 -0.08857994 -0.011701312 -0.15241268 0.2577276 -0.014521551 -0.085541695 0.025364658 0.14550659 0.17398567 0.23273662 -0.28968313 -0.19110256 -0.02049892 -0.297648 0.3461523 0.17994842 -0.11509884 -0.5070851 0.11324357 0.13717662 0.29008377 0.029487738 -0.14787628 -0.3914697 0.12218234 0.2155656 0.2554642 -0.21555258 0.25096977 -0.16510312 0.08991964 0.26291212 -0.16645399 0.3058388 0.24829532 -0.00037527483 -0.0003838601 -0.21719451 0.20260885 -0.049824722 0.020814369 -0.2651923 0.46180934 -0.14638302 0.18333332 0.044379607 0.43048233 0.40384242 0.159402 0.55364215 0.18008214 -0.1254034 -0.054400343 0.5369695 0.26040867 0.034708068 -0.40348983 0.029343441 -0.0992008
侯 -0.27737007 0.30943447 0.1296679 0.045142487 0.0060905353 -0.58161366 0.22334243 0.59244066 -0.34614772 -0.21250553 -0.13755083 -0.27957255 -0.14451748 0.07571546 0.118063204 -0.18323825 0.027909094 -0.46100628 -0.15914637 -0.5643509 0.25454882 0.20539969 0.20099865 -0.34002435 -0.082319684 0.026499018 -0.28296474 -0.29108402 -0.36872104 0.008364502 0.31293 0.1223712 0.04336094 -0.027050827 -0.012803145 0.41800103 -0.024044808 -0.28832567 -0.3780352 -0.5193649 -0.021315018 -0.10867568 -0.0026542253 -0.1727793 0.30427036 -0.010984437 -0.104891755 0.020068457 0.17773332 0.19542706 0.27582964 -0.32663527 -0.20802996 -0.019288387 -0.34865117 0.38137618 0.21040584 -0.14347608 -0.56388104 0.13868837 0.15584515 0.3226981 0.03634224 -0.18635802 -0.4414102 0.14462927 0.24432272 0.29066414 -0.24509925 0.27613428 -0.17722224 0.09368994 0.29381946 -0.19740225 0.33805227 0.27643326 0.01095673 0.008559239 -0.22984597 0.23406313 -0.068026915 0.035371445 -0.3052435 0.50660974 -0.1482832 0.19809815 0.052782413 0.50314224 0.44813737 0.19145496 0.6249408 0.20140605 -0.14244975 -0.0830585 0.6161729 0.29282337 0.045796692 -0.46316624 0.027968792 -0.10927849
文 -0.24565034 0.27335307 0.11006728 0.043610234 0.0022605197 -0.5339673 0.21082357 0.5416937 -0.33152053 -0.18207951 -0.1125229 -0.2550168 -0.12697765 0.078559026 0.09559107 -0.1683977 0.03133626 -0.41984057 -0.14762571 -0.51798046 0.23465647 0.1830187 0.1698985 -0.29379034 -0.074453026 0.01692651 -0.23916872 -0.26069593 -0.3361474 0.01281983 0.30336785 0.114234194 0.056042526 -0.03198321 -0.013573063 0.38104767 -0.012798237 -0.25087047 -0.32748282 -0.48352465 -0.0021755097 -0.10058191 -0.0029932288 -0.1475419 0.2624712 -0.018303972 -0.09596531 0.025353404 0.16434297 0.16796559 0.23245075 -0.2974613 -0.1759676 -0.026998818 -0.30586484 0.35223675 0.19121107 -0.11013074 -0.50422674 0.1344112 0.14862597 0.28642857 0.036925305 -0.1729621 -0.417143 0.121282734 0.22132261 0.268601 -0.23173843 0.24853198 -0.16488346 0.09066808 0.26672456 -0.1736209 0.32236734 0.24304098 6.651149e-05 0.0074846144 -0.21906407 0.21836907 -0.050570846 0.032428406 -0.2781532 0.46055865 -0.15231825 0.18158366 0.045404185 0.44457713 0.41963446 0.17646256 0.56540143 0.1896084 -0.1115256 -0.059807803 0.55504835 0.25211328 0.042321365 -0.41409567 0.040944103 -0.09669557
东 -0.22244054 0.26925084 0.11735011 0.034516327 0.016087806 -0.4902964 0.18322626 0.5030359 -0.30896515 -0.18862012 -0.110707946 -0.23250052 -0.11828063 0.070565276 0.10243807 -0.14848691 0.020676672 -0.37803552 -0.13656566 -0.49066168 0.2182013 0.16804065 0.16930655 -0.2869917 -0.070067495 0.015834253 -0.2419514 -0.24240442 -0.3104242 0.017027646 0.26008588 0.08771276 0.047163665 -0.02934772 -0.0041891993 0.36410856 -0.022633418 -0.23057993 -0.30291346 -0.44368356 -0.012519817 -0.09864987 0.0026041404 -0.13486508 0.2518225 -0.024836445 -0.07983583 0.015369031 0.14615294 0.16638568 0.22833018 -0.2695968 -0.18354726 -0.0079145245 -0.30054173 0.32839254 0.18807203 -0.11076389 -0.4709108 0.11288234 0.13117929 0.28690353 0.022707189 -0.14494526 -0.39354655 0.13351813 0.20932661 0.24831578 -0.20507823 0.23660281 -0.15592133 0.08192121 0.24858272 -0.1667661 0.2920604 0.22120512 -0.0025906856 0.018256085 -0.19100676 0.20564385 -0.062020876 0.025360676 -0.25920653 0.4420201 -0.13349965 0.17979217 0.029356826 0.41993096 0.39118257 0.15908779 0.5189746 0.16871606 -0.11252066 -0.0729488 0.52685636 0.24754053 0.0365552 -0.39783117 0.021139305 -0.088834755
生 -0.25360084 0.29601505 0.11580206 0.055177204 0.0022642622 -0.54309297 0.22356318 0.5549099 -0.3431674 -0.19418526 -0.13464329 -0.27555436 -0.11787986 0.061147492 0.09942581 -0.1767933 0.035666227 -0.42467922 -0.14836693 -0.54506326 0.24480881 0.2069247 0.19309619 -0.31391102 -0.07417935 0.027141526 -0.25778776 -0.2610676 -0.35424832 0.010378398 0.30054867 0.09980136 0.0568044 -0.026384791 -0.012352958 0.39774162 -0.01627722 -0.2754073 -0.34708008 -0.5002488 -0.021288099 -0.1040233 0.00023350121 -0.15432362 0.27628955 -0.009347421 -0.107901014 0.014441504 0.15772218 0.17195728 0.25982153 -0.31730825 -0.20452172 -0.025460172 -0.32205763 0.36521092 0.20348404 -0.13275073 -0.5395992 0.13001469 0.14143209 0.3010637 0.023344867 -0.16636124 -0.4373083 0.13740042 0.22475082 0.2788123 -0.23555204 0.26468092 -0.1774971 0.09459188 0.28694496 -0.18493411 0.32586902 0.25517252 0.015460367 0.000743896 -0.23064485 0.22445682 -0.06450854 0.037314985 -0.28196338 0.47897527 -0.15726557 0.18330167 0.03435557 0.4650263 0.42599642 0.17223303 0.58727986 0.1933748 -0.12505634 -0.06518971 0.5908103 0.26555812 0.05003211 -0.42979214 0.030035365 -0.10462816
福 -0.23952238 0.25771865 0.11984586 0.050118156 0.018428655 -0.5052916 0.20178993 0.50440806 -0.29290676 -0.19301197 -0.11510582 -0.25086343 -0.12596276 0.0637827 0.11075035 -0.14762926 0.020306459 -0.38548592 -0.13487534 -0.47757003 0.20317207 0.18710552 0.1568606 -0.29383942 -0.07265816 0.024152765 -0.24297425 -0.24238077 -0.32226533 0.003490307 0.28058818 0.09951964 0.052528847 -0.009841618 -0.02301756 0.36608955 -0.0055424003 -0.23822278 -0.3118547 -0.4498679 -0.007418501 -0.089494996 0.00038189895 -0.14958619 0.25557792 -0.009757679 -0.099358045 0.02506856 0.15094587 0.15980163 0.22522731 -0.27750468 -0.16905363 -0.006972161 -0.30835554 0.34225115 0.182813 -0.124153696 -0.47306612 0.1238617 0.1323675 0.28731847 0.01881791 -0.16124456 -0.3863405 0.1180216 0.20270075 0.24436028 -0.22200724 0.23353416 -0.15033956 0.09134205 0.25845036 -0.16275458 0.30564925 0.23097321 0.013565245 0.0060873325 -0.20380853 0.19410697 -0.051849 0.031491738 -0.2525364 0.44813558 -0.1414892 0.18698165 0.03895306 0.42301294 0.38383126 0.14495559 0.5250118 0.18359664 -0.10788636 -0.052983347 0.51612675 0.25448617 0.031432778 -0.39208338 0.04074363 -0.08985311
士 -0.26935473 0.2863612 0.12499351 0.044261005 0.0014503036 -0.5444423 0.21791394 0.5559181 -0.32940257 -0.19614498 -0.13737962 -0.26340324 -0.123182215 0.062138017 0.10616266 -0.17006311 0.031546313 -0.42826405 -0.14788982 -0.5398738 0.24115443 0.19567128 0.18266578 -0.31145748 -0.08103543 0.019604344 -0.24819534 -0.27639282 -0.356935 0.008658821 0.29539573 0.108997904 0.05693009 -0.02235303 -0.0058155255 0.3983912 -0.01922462 -0.27041626 -0.35086638 -0.4852066 -0.00460925 -0.094415635 -0.010144554 -0.16871345 0.28447068 -0.015013592 -0.09344372 0.019914012 0.17305018 0.16756007 0.26149055 -0.31584156 -0.1969375 -0.008702202 -0.34164372 0.37255922 0.19427091 -0.13472937 -0.5320255 0.13272709 0.14115117 0.3168862 0.023496347 -0.16906762 -0.4166309 0.13855654 0.22078769 0.27426642 -0.23920536 0.25888067 -0.16597621 0.108924545 0.28802755 -0.1905194 0.34200367 0.25081882 0.0130138565 0.0018003872 -0.23332287 0.22171243 -0.07221485 0.023577465 -0.279003 0.48482376 -0.15893564 0.18728596 0.035182957 0.46981 0.4379688 0.17359568 0.59603167 0.19447698 -0.11826227 -0.06392055 0.5881389 0.26983213 0.044641983 -0.4351816 0.023030732 -0.085148744
云 -0.23004846 0.26502836 0.10965518 0.04315918 0.008345676 -0.4878919 0.18944904 0.48445693 -0.3009804 -0.17780276 -0.11192147 -0.24078925 -0.1057917 0.06390755 0.098185465 -0.15557617 0.022019591 -0.36746043 -0.11726587 -0.46642438 0.21198119 0.16317114 0.1671131 -0.28269714 -0.07459566 0.030829206 -0.22961193 -0.24040675 -0.31396368 0.015422379 0.26068798 0.09719458 0.041722156 -0.013024704 -0.0100542875 0.33885905 -0.01535784 -0.2264751 -0.304289 -0.43629476 -0.005079332 -0.08051419 0.003540336 -0.13882664 0.23178281 -0.01792908 -0.08004415 0.010958529 0.15451677 0.14612928 0.21011846 -0.27355507 -0.16529305 -0.020470394 -0.27895373 0.3097893 0.18109253 -0.107587665 -0.4661742 0.12240422 0.12974748 0.2686408 0.031675093 -0.14119472 -0.3700312 0.13008322 0.19744806 0.22636992 -0.21024571 0.22361326 -0.15451173 0.085625604 0.2531267 -0.1667133 0.29265198 0.2275784 0.0052457065 0.010110908 -0.19056956 0.18692392 -0.051905654 0.03378627 -0.24736279 0.41429904 -0.1393001 0.15747471 0.039152864 0.41474375 0.3831171 0.1502418 0.5126293 0.17576018 -0.1216882 -0.0699522 0.5090928 0.22676766 0.035723235 -0.3864952 0.034721814 -0.087981395
食 -0.2951046 0.3469874 0.14015828 0.049014755 0.0149290925 -0.64805335 0.26274762 0.6568685 -0.3848057 -0.24256983 -0.15202123 -0.31587142 -0.15194194 0.07540652 0.13537034 -0.193923 0.032303534 -0.4983949 -0.162049 -0.62950486 0.2865753 0.22914532 0.20526569 -0.3713748 -0.09857359 0.03994561 -0.3119175 -0.31388202 -0.4199688 0.016071554 0.3600175 0.11561398 0.049946915 -0.02213832 -0.011362625 0.47294658 -0.016815739 -0.31857234 -0.4193593 -0.5723147 -0.023054328 -0.115110345 -0.007559948 -0.1964542 0.33312446 -0.020305239 -0.1261446 0.01342096 0.19466195 0.19926244 0.29985067 -0.3579667 -0.22547787 -0.021674762 -0.37952796 0.42169866 0.24625778 -0.14979543 -0.6294795 0.15743142 0.16639519 0.3571278 0.032161146 -0.20617184 -0.5008398 0.15340467 0.27061045 0.30897862 -0.2800014 0.29222783 -0.20865206 0.11687731 0.32097703 -0.2230102 0.38861403 0.30003875 0.009910706 0.020644674 -0.27669087 0.26665565 -0.08371273 0.039590333 -0.32039717 0.57685643 -0.18186548 0.22986634 0.03956739 0.54864794 0.49869066 0.19459118 0.68973583 0.23819314 -0.1536406 -0.090732954 0.6829162 0.31260067 0.04254501 -0.5184208 0.03568039 -0.10487935
式 -0.2787794 0.31573656 0.13556224 0.039542347 0.011530172 -0.5748383 0.22781 0.5767435 -0.348823 -0.21865013 -0.12313821 -0.29168478 -0.14148945 0.07349529 0.11528881 -0.17950182 0.031251676 -0.44390503 -0.14649084 -0.5557833 0.24192694 0.19609655 0.17870747 -0.31725177 -0.07998136 0.02075528 -0.26247886 -0.2697596 -0.36178997 0.0038500319 0.31194872 0.108356036 0.043736927 -0.016789844 -0.0092739295 0.40923673 -0.0069709574 -0.28991935 -0.35931042 -0.5192517 -0.0112216 -0.10824023 0.00029530574 -0.15844132 0.28905028 -0.02429653 -0.11265032 0.02459948 0.1779315 0.19139457 0.25775138 -0.33107167 -0.19508556 -0.01963199 -0.34085295 0.3907706 0.20689331 -0.13055776 -0.5617704 0.12870707 0.1440775 0.32063577 0.021405919 -0.17985164 -0.44646397 0.14967254 0.23947366 0.28900242 -0.23992085 0.26439676 -0.1823946 0.11369164 0.30017146 -0.20119241 0.3490778 0.2773532 0.015479431 0.0016115757 -0.23905629 0.23289946 -0.06504652 0.027429117 -0.29733765 0.5138703 -0.1473015 0.20195329 0.036430024 0.48519427 0.4438306 0.1846492 0.61030585 0.20425464 -0.14274164 -0.07341863 0.6111377 0.2877697 0.051881175 -0.45941332 0.046223402 -0.09972073
父 -0.2480616 0.29442888 0.1102555 0.049484774 0.025317868 -0.5220008 0.21421465 0.536173 -0.32294613 -0.20405848 -0.11864389 -0.26026845 -0.12792677 0.06820605 0.1091816 -0.17259145 0.033159982 -0.39940172 -0.14696188 -0.5159686 0.21694607 0.17976508 0.18441077 -0.31090185 -0.074457414 0.014725075 -0.25778878 -0.26369244 -0.3403861 0.012881693 0.28154364 0.0940048 0.042785153 -0.021234376 -0.021720873 0.37784716 -0.0058421106 -0.25507706 -0.32859313 -0.46959773 -0.011766972 -0.0942896 0.007689858 -0.15424052 0.2685983 -0.0131249605 -0.10573308 0.02456005 0.1624934 0.17111789 0.25284392 -0.3028196 -0.18259685 -0.02304175 -0.32841086 0.3554276 0.19934608 -0.11421719 -0.5273246 0.1314231 0.14294809 0.29999298 0.030063564 -0.15641934 -0.39936984 0.1216671 0.20665918 0.26871467 -0.22469507 0.23660602 -0.16801354 0.09960584 0.28095073 -0.18061501 0.3161796 0.23828483 -0.0054235966 0.01132774 -0.22003922 0.20450024 -0.060735285 0.01427002 -0.27238545 0.4702693 -0.14101633 0.19648898 0.050359007 0.45052087 0.42242956 0.17489731 0.5745339 0.20241512 -0.11674716 -0.061780963 0.56759095 0.25685152 0.03353103 -0.409976 0.031936586 -0.097670175
上 -0.27750626 0.30500603 0.14180116 0.051492285 0.014634079 -0.57119274 0.2364073 0.5785122 -0.35971797 -0.21506462 -0.13550657 -0.29550096 -0.1349485 0.064070925 0.12482948 -0.18495621 0.0279292 -0.46066275 -0.1542679 -0.5823677 0.25053567 0.21428508 0.18789941 -0.32395095 -0.08487258 0.018365609 -0.2778384 -0.28504193 -0.38244796 0.0014450841 0.31568924 0.113183275 0.05664305 -0.03082564 -0.021137564 0.42253602 -0.018625224 -0.28243947 -0.37154981 -0.51639587 -0.0064082965 -0.11701963 0.00056571 -0.16192855 0.29363233 -0.010006192 -0.11037507 0.016590955 0.16557033 0.19975607 0.2532477 -0.32651398 -0.2067296 -0.022197332 -0.3376518 0.37923804 0.20480967 -0.12359342 -0.57498026 0.14857244 0.14636481 0.33210412 0.029651962 -0.18382125 -0.45921424 0.13530153 0.24922764 0.2931224 -0.24710703 0.2811594 -0.1718318 0.1089538 0.3012271 -0.20572096 0.35887912 0.26239213 0.004150592 0.010891053 -0.23224367 0.22602087 -0.0658639 0.036532234 -0.30617663 0.52372086 -0.16255492 0.21450965 0.036919173 0.50494725 0.46786186 0.17399916 0.6203222 0.19841187 -0.12575544 -0.061938692 0.60419154 0.2887616 0.044675034 -0.4724875 0.036273222 -0.11402802
谁 -0.24733321 0.2741093 0.12624183 0.051943704 0.0092157945 -0.53005254 0.19589257 0.53414345 -0.31782025 -0.18485376 -0.117872864 -0.26223472 -0.1180675 0.07783455 0.11245745 -0.15462086 0.021317547 -0.41816467 -0.12893188 -0.5254479 0.2304374 0.19604185 0.17117983 -0.29566127 -0.08251779 0.033981483 -0.24226436 -0.25186077 -0.35148954 0.020281604 0.29849544 0.09990044 0.049193528 -0.010730538 -0.01593186 0.38821763 -0.016446542 -0.26147333 -0.33621517 -0.47752059 -0.013406319 -0.10549701 -8.247535e-06 -0.14575616 0.27129343 -0.00880939 -0.10078215 0.02369813 0.1516339 0.16482472 0.25216085 -0.28788224 -0.19278985 -0.021814695 -0.31020182 0.3552772 0.20010205 -0.13040034 -0.5135712 0.12317612 0.13677835 0.2974602 0.0219865 -0.15832485 -0.41249946 0.14084783 0.2153018 0.26793805 -0.22356175 0.25171947 -0.16979316 0.085820235 0.2689146 -0.17866689 0.32827917 0.25239775 -0.001666091 0.01738225 -0.2152109 0.20166132 -0.054146025 0.024507951 -0.27869508 0.47544062 -0.134586 0.19361527 0.041588373 0.45813984 0.41831335 0.15670201 0.5707585 0.1880653 -0.13233146 -0.057458173 0.54927 0.26650855 0.03226268 -0.4097088 0.026296217 -0.087561116
马 -0.25708443 0.30675572 0.12380617 0.03990083 0.0006937484 -0.5576609 0.23086499 0.5626483 -0.33355597 -0.19831155 -0.13748802 -0.27410206 -0.1372517 0.067710005 0.11185566 -0.18246193 0.028503891 -0.44555047 -0.15433323 -0.55978936 0.2537778 0.2111338 0.1853932 -0.3263012 -0.07412503 0.028042113 -0.2761503 -0.27998292 -0.36360216 0.0193842 0.3130072 0.120865695 0.054220784 -0.020176332 -0.0044785975 0.4190456 -0.00654783 -0.26590025 -0.36967072 -0.49946156 -0.0231133 -0.11155993 -0.015719984 -0.1609003 0.28464785 -0.023220092 -0.09369125 0.029880151 0.17293613 0.19237782 0.25383583 -0.3212027 -0.19693919 -0.018023383 -0.3468118 0.38115442 0.20474277 -0.13709478 -0.5457125 0.1417602 0.1549149 0.31619233 0.039958283 -0.17119814 -0.43192768 0.13942716 0.23501447 0.28471586 -0.25027478 0.27035984 -0.17029437 0.108587995 0.28600448 -0.19461426 0.33184958 0.26289478 0.0028396696 0.006324783 -0.23264198 0.2355829 -0.05986706 0.021124782 -0.29493296 0.49344957 -0.14831117 0.18886699 0.049607795 0.48363408 0.440086 0.18719944 0.61002743 0.20373827 -0.12336641 -0.08035579 0.584208 0.2745036 0.055604037 -0.44661564 0.041446332 -0.108239554
邦 -0.23698366 0.27333832 0.11423442 0.03725978 0.015507637 -0.5156552 0.2052784 0.5169449 -0.31062984 -0.19183925 -0.1242339 -0.2573794 -0.123713076 0.06869219 0.095796935 -0.15920833 0.019403338 -0.3980612 -0.13198777 -0.50823486 0.22025199 0.19176416 0.17142302 -0.28647408 -0.07744354 0.023533285 -0.23637322 -0.2441965 -0.31790647 0.008592337 0.28802654 0.10528046 0.047386438 -0.012977603 -0.017754938 0.36365393 -0.0027771585 -0.23850158 -0.31955525 -0.45902476 -0.004704797 -0.09171255 -0.0018012795 -0.13763213 0.2609692 -0.010486807 -0.090782434 0.008932953 0.14918238 0.1661944 0.22663386 -0.27592117 -0.17206283 -0.02320985 -0.31251553 0.33271393 0.18618545 -0.1182086 -0.4965607 0.118714444 0.13623361 0.29515454 0.023585413 -0.1656458 -0.38826537 0.11977322 0.21774839 0.2528151 -0.22370657 0.23015557 -0.16385353 0.09507825 0.2622072 -0.16728093 0.30583382 0.23892994 0.0071983812 0.0072633503 -0.21661133 0.20327815 -0.0566647 0.022968104 -0.2607972 0.44519502 -0.12872882 0.17695735 0.048240952 0.42931116 0.38736218 0.15279233 0.5351556 0.18384607 -0.112961285 -0.062503055 0.5439731 0.25045195 0.04700898 -0.40473735 0.028848125 -0.0825992
明 -0.2268884 0.2673229 0.10117525 0.02873978 0.009949747 -0.48148254 0.1863388 0.48374382 -0.2989081 -0.18527885 -0.10077043 -0.24259607 -0.11588384 0.059762016 0.092458226 -0.16119179 0.02584559 -0.37793186 -0.1134737 -0.4835348 0.20165728 0.16944543 0.1606583 -0.28140172 -0.07635965 0.012880204 -0.22156647 -0.24441321 -0.3145435 0.010642801 0.26926294 0.08375699 0.05059846 -0.023219531 -0.013161317 0.34125853 -0.020245543 -0.23332873 -0.30238602 -0.42871302 -0.007307507 -0.098329045 -0.003287019 -0.14319511 0.24301027 -0.009201648 -0.085232064 0.008454688 0.14958857 0.16349244 0.21432714 -0.26438978 -0.17643528 -0.0038040846 -0.28701013 0.32482138 0.17530642 -0.12140768 -0.46137536 0.11424924 0.13335258 0.27584064 0.0153117655 -0.1497233 -0.3702125 0.11631517 0.21164706 0.2315745 -0.21180823 0.2313729 -0.15144293 0.08061178 0.25047663 -0.15623724 0.28537545 0.2209738 -0.0036740494 0.010443608 -0.20191191 0.20407175 -0.055018067 0.026521603 -0.2503916 0.43606958 -0.13038842 0.16107939 0.029236846 0.41406465 0.38891515 0.15578414 0.506446 0.16725266 -0.123050116 -0.05662962 0.4980289 0.24174379 0.04009228 -0.3847916 0.019530406 -0.079284035
作 -0.28919157 0.31525406 0.12972042 0.057320185 0.014868727 -0.6140737 0.23802988 0.61710143 -0.37839296 -0.2287979 -0.1401211 -0.3101637 -0.14064068 0.07944734 0.12746951 -0.18780747 0.035998777 -0.46840858 -0.16261004 -0.5910085 0.26081285 0.21603964 0.18884307 -0.3450202 -0.07976847 0.030436428 -0.29426727 -0.2986223 -0.39794442 0.017837165 0.32846457 0.1238434 0.047665082 -0.030944744 -0.02361862 0.4449376 -0.02337926 -0.3039282 -0.39283237 -0.5496035 -0.019193409 -0.11058259 0.0026196318 -0.17752163 0.30361012 -0.017242247 -0.1049946 0.016297404 0.17760241 0.20175569 0.2848982 -0.34728554 -0.20686623 -0.027451165 -0.37332022 0.4001903 0.22523846 -0.14038143 -0.58827513 0.15133509 0.16387914 0.3377637 0.026420865 -0.19735372 -0.4717954 0.16125073 0.24453361 0.30344927 -0.25407532 0.28096393 -0.1930603 0.10461677 0.30481237 -0.21140125 0.37122294 0.2777867 0.0025458776 0.014416614 -0.2501625 0.23704973 -0.07676193 0.03440575 -0.3078909 0.53461707 -0.1640161 0.21740817 0.04825106 0.51662165 0.4832665 0.18337768 0.65382797 0.2087745 -0.14213412 -0.069489926 0.63712126 0.305204 0.054637637 -0.49221927 0.03803545 -0.11167421
多 -0.22907913 0.24846242 0.11091453 0.04644707 0.0044039767 -0.46613154 0.17692272 0.46856433 -0.27859554 -0.18002431 -0.10369947 -0.23748396 -0.10797259 0.062716596 0.08578457 -0.1446303 0.02442259 -0.3705684 -0.1227162 -0.4518437 0.19091547 0.15968671 0.15213037 -0.25737494 -0.06602371 0.03093075 -0.22602992 -0.21637352 -0.30618677 0.0014551466 0.24956457 0.09292777 0.03763686 -0.0089963395 -0.013105231 0.33966973 -0.0053000427 -0.23754674 -0.2983063 -0.4210753 -0.01919209 -0.08196998 -0.0004944443 -0.137884 0.23319203 -0.02145011 -0.087129265 0.017868662 0.14831695 0.15721394 0.20874803 -0.25614658 -0.16738436 -0.017026557 -0.28401244 0.30507362 0.17408174 -0.11668467 -0.45944214 0.10488379 0.12891118 0.2626529 0.030687602 -0.13590762 -0.36670262 0.110281944 0.19993602 0.23356478 -0.19338046 0.22741863 -0.1332596 0.082711734 0.23867078 -0.1497158 0.28931734 0.22872415 -0.003459693 0.0026650096 -0.18685786 0.18870035 -0.053649917 0.031998962 -0.2299306 0.4035266 -0.12804522 0.15524237 0.042030472 0.40023234 0.36173365 0.14831288 0.502139 0.17623524 -0.10108161 -0.054976866 0.4910444 0.23702045 0.040382724 -0.37103635 0.018808888 -0.08030718
俾 -0.27119374 0.30281436 0.118904494 0.042639658 0.013716323 -0.55274546 0.20751 0.56098145 -0.34049764 -0.21263276 -0.1224056 -0.27275604 -0.121990286 0.062376335 0.10810354 -0.17301719 0.037373565 -0.4393818 -0.13690871 -0.55282664 0.22803114 0.19690332 0.17867973 -0.31920362 -0.08327515 0.030478861 -0.26909897 -0.26807672 -0.35315317 0.010497779 0.30349985 0.11424361 0.03837699 -0.029624902 -0.010728556 0.40961555 -0.02153419 -0.281115 -0.3509755 -0.50438553 -0.010637039 -0.09217947 -0.010227507 -0.16794999 0.28943422 -0.01813815 -0.10408882 0.016312683 0.15699562 0.17334107 0.24970594 -0.3082686 -0.19445872 -0.0062439926 -0.32581896 0.36743847 0.19333021 -0.12530813 -0.5436093 0.139521 0.14720486 0.30877298 0.036636557 -0.17549528 -0.4324202 0.13587557 0.23703352 0.27766886 -0.23274288 0.26278812 -0.17211695 0.1094968 0.27459973 -0.18875599 0.32638046 0.2685971 0.0026446572 0.0060081244 -0.2212432 0.21411133 -0.06776052 0.031880364 -0.2881647 0.49712744 -0.14763707 0.19043717 0.047481507 0.48120797 0.43259943 0.18080042 0.58099055 0.19683385 -0.116775595 -0.06343113 0.5846108 0.26869392 0.049813256 -0.4374107 0.04289644 -0.097015455
及 -0.2618826 0.30000558 0.121167645 0.044341046 0.0148307765 -0.5717521 0.23027931 0.56625015 -0.35527155 -0.20097639 -0.123667404 -0.2852507 -0.13661012 0.06872378 0.111661136 -0.1687119 0.03462122 -0.44642422 -0.15081683 -0.56402963 0.23688102 0.21125124 0.17987129 -0.32983345 -0.088239275 0.03649316 -0.26197425 -0.2780219 -0.36615542 0.009349417 0.32501057 0.10698738 0.054775693 -0.025953563 -0.0045979717 0.42442676 -0.0075067896 -0.28168833 -0.36557657 -0.5211696 -0.004849804 -0.11408519 -0.010876711 -0.15998441 0.28682396 -0.010089837 -0.110472366 0.029703062 0.1737188 0.17659996 0.26718596 -0.3252087 -0.19572568 -0.009078528 -0.35323933 0.3885466 0.2152338 -0.12531154 -0.56441563 0.12889412 0.13877323 0.32631147 0.026787693 -0.17055659 -0.4363761 0.1504359 0.23962027 0.2817121 -0.24211097 0.271852 -0.18552804 0.0973903 0.290909 -0.18840519 0.34226567 0.2578878 0.005093134 0.017684093 -0.22771934 0.23531738 -0.0730927 0.024679624 -0.29350954 0.49862382 -0.16349557 0.20069222 0.045748122 0.4935167 0.45245463 0.1901979 0.60068595 0.21644473 -0.13485369 -0.072043404 0.5974788 0.2769482 0.045397498 -0.4632378 0.044728443 -0.095866375
伯 -0.29323584 0.33111447 0.14658967 0.04221243 0.016942143 -0.6128154 0.244922 0.618752 -0.3863306 -0.21718779 -0.14309086 -0.31197512 -0.142343 0.07295629 0.12735295 -0.1975165 0.03381885 -0.4795723 -0.16300876 -0.6093094 0.27282807 0.22132562 0.19108412 -0.3494092 -0.09674493 0.028163664 -0.2847447 -0.29406333 -0.4027238 0.013831346 0.3485599 0.11338794 0.047585923 -0.028964726 -0.023115447 0.4492356 -0.007670177 -0.2984145 -0.38857156 -0.5528193 -0.01699084 -0.122800544 -0.0061879256 -0.17047149 0.31511438 -0.018725062 -0.10169191 0.026688244 0.1773077 0.20544341 0.29319057 -0.35338566 -0.20984785 -0.026183574 -0.37220147 0.41506645 0.21924041 -0.14992476 -0.60796535 0.13512503 0.15471788 0.35683402 0.036682565 -0.20061561 -0.46778846 0.16082422 0.26511678 0.3143931 -0.27045286 0.2866641 -0.18669964 0.11324954 0.31776136 -0.21596721 0.37543404 0.29817015 -0.0045780847 0.021480873 -0.24857277 0.24520396 -0.07419224 0.01951314 -0.3217968 0.5506542 -0.16997318 0.22947915 0.039733965 0.51831436 0.49200815 0.20306902 0.65926343 0.22896254 -0.13474151 -0.08391676 0.65693134 0.29426265 0.046780698 -0.49823698 0.045598045 -0.1128381
万 -0.24197501 0.27377915 0.11523552 0.034880914 0.0038399212 -0.51748955 0.20360579 0.5189892 -0.314323 -0.18781649 -0.12565218 -0.24331017 -0.12218766 0.05758896 0.10087987 -0.15180697 0.02754354 -0.40813437 -0.14253151 -0.5136247 0.21708846 0.19262348 0.16119567 -0.29405013 -0.07536251 0.029835403 -0.25107488 -0.24138309 -0.3357912 0.016480187 0.2747297 0.10472995 0.035002727 -0.021987531 -0.017362095 0.37046036 -0.013434356 -0.25215432 -0.32330045 -0.46443868 -0.016996993 -0.10162986 0.007958995 -0.1441335 0.27272144 -0.009131021 -0.097589165 0.025839875 0.1459311 0.16856925 0.2323262 -0.28652886 -0.17816816 -0.016183162 -0.3169877 0.34276733 0.19012916 -0.112827726 -0.5072933 0.12721099 0.13006361 0.28068736 0.021651544 -0.15837857 -0.38924643 0.13596053 0.22366196 0.260768 -0.22309254 0.23773871 -0.14835098 0.10180726 0.269322 -0.16365205 0.31180295 0.24442492 -0.005868911 0.017055882 -0.20290154 0.19790973 -0.05887249 0.03737562 -0.25882047 0.4623208 -0.12839626 0.18127221 0.04874784 0.446803 0.40084547 0.16103525 0.5578347 0.19276293 -0.12796196 -0.06882383 0.53986007 0.25699848 0.04331899 -0.42027214 0.03493887 -0.08083115
出 -0.21919204 0.2573254 0.10685634 0.04564411 0.019621503 -0.46591714 0.18233575 0.47784898 -0.29287407 -0.1641231 -0.11198161 -0.22061719 -0.119426675 0.057458963 0.10107811 -0.14997055 0.025085632 -0.3591089 -0.112261795 -0.4643323 0.19546121 0.1773603 0.14503954 -0.2674783 -0.060196903 0.013596427 -0.22820155 -0.23816925 -0.30412024 0.015530381 0.24990417 0.087685145 0.04987082 -0.023374608 -0.0083413115 0.34525284 -0.015662016 -0.23642917 -0.28941423 -0.42342046 -0.0033668687 -0.08974834 -0.00078132557 -0.13135566 0.23810025 -0.010903915 -0.0903389 0.026225274 0.13999565 0.1476372 0.22005889 -0.25347665 -0.17355074 -0.012604226 -0.27774194 0.31056532 0.17300525 -0.10080987 -0.44962 0.10448695 0.12000892 0.27366015 0.025639385 -0.15416852 -0.36688253 0.110441014 0.19572423 0.23232883 -0.2058289 0.2168184 -0.13527709 0.08997744 0.24293011 -0.15777378 0.2899098 0.21488664 0.010769235 0.007866212 -0.20138389 0.18005244 -0.05625407 0.03071835 -0.23814987 0.40647033 -0.12578474 0.16247801 0.031856135 0.4114049 0.37629098 0.1492704 0.50308067 0.17064708 -0.11815097 -0.056871448 0.50281006 0.2349907 0.040714156 -0.37857485 0.031236408 -0.090652056
孙 -0.24943341 0.28917295 0.12073619 0.042635854 0.013720628 -0.5290913 0.21136451 0.5466505 -0.31969887 -0.19313523 -0.12643073 -0.26867956 -0.13360289 0.064029045 0.109059505 -0.15791042 0.030682955 -0.42021176 -0.13477069 -0.5289642 0.22867487 0.19912007 0.18420783 -0.30462164 -0.08303462 0.029153822 -0.24052764 -0.25037524 -0.3474926 0.017731784 0.3061228 0.095198445 0.056126177 -0.020771476 -0.019676773 0.3909812 -0.0034255418 -0.269623 -0.33127883 -0.4849812 -0.021727262 -0.093226366 -0.0071490244 -0.14927383 0.278465 -0.006096785 -0.08980132 0.00935043 0.1640091 0.16310878 0.24550204 -0.28766057 -0.19349119 -0.010583426 -0.32844144 0.3472184 0.20484151 -0.11976122 -0.51153827 0.13008922 0.140506 0.30313593 0.020289885 -0.15753213 -0.41914 0.1364992 0.21567513 0.26380506 -0.22263822 0.2479366 -0.17203584 0.090364695 0.26156482 -0.16861166 0.3156039 0.25036386 -0.0036993977 0.005121333 -0.2240884 0.21881004 -0.05635571 0.030113026 -0.26134178 0.47182864 -0.13375504 0.19651513 0.044065494 0.4584362 0.41027072 0.16575271 0.5739737 0.18292002 -0.1202438 -0.07650905 0.57210165 0.26129103 0.044612955 -0.4302192 0.03935618 -0.10113807
衣 -0.24650177 0.2771676 0.108546026 0.04206829 0.016915921 -0.49541825 0.20369974 0.5112486 -0.2983704 -0.19175205 -0.10967943 -0.23593296 -0.12074821 0.06619182 0.09517822 -0.15994018 0.03910803 -0.39083013 -0.1275222 -0.4986744 0.2233114 0.17532478 0.1607244 -0.28509507 -0.05950428 0.015247253 -0.23263043 -0.24262296 -0.3310957 0.0033368375 0.26673955 0.10287103 0.040009383 -0.02306797 -0.009952141 0.3691845 -0.0007376461 -0.25620744 -0.32023156 -0.44976252 -0.01589506 -0.09336608 0.0044773747 -0.14850672 0.26396447 -0.013846039 -0.09123251 0.025924623 0.15902594 0.16463648 0.22936244 -0.27290815 -0.18373215 -0.008491724 -0.30162013 0.32953146 0.19240871 -0.11980853 -0.4858946 0.109298095 0.13446611 0.28739324 0.03348895 -0.16415492 -0.39823395 0.13356635 0.21099932 0.2490795 -0.21957071 0.23369169 -0.16350086 0.09417573 0.25108764 -0.16870528 0.30695143 0.23797806 -0.0018739607 0.011683758 -0.2143709 0.19782352 -0.05737083 0.03450177 -0.2622459 0.4443033 -0.12628831 0.18668991 0.044440854 0.42067608 0.3990725 0.1685171 0.53924465 0.1829189 -0.11672685 -0.058649782 0.5332574 0.25582114 0.03675657 -0.41091058 0.037925195 -0.09562786
鼓 -0.28928912 0.3264328 0.13380636 0.045272887 0.013888095 -0.6117029 0.24122344 0.6010039 -0.36948928 -0.21537381 -0.13435395 -0.29031438 -0.140641 0.0649389 0.12852605 -0.19193307 0.03255209 -0.46194735 -0.1575336 -0.58665746 0.2610668 0.2172982 0.20808756 -0.33461985 -0.08595262 0.022635743 -0.2778382 -0.30121192 -0.37803575 0.016090216 0.3399034 0.120771974 0.05009625 -0.019870969 -0.021011226 0.4472371 -0.009061502 -0.28998786 -0.39131802 -0.54982096 -0.0034554563 -0.105824776 -0.009036247 -0.18472026 0.30181846 -0.016933247 -0.118890956 0.021321828 0.18410096 0.18186517 0.27735415 -0.34484914 -0.2189146 -0.016751913 -0.37870944 0.40097553 0.21477589 -0.14845924 -0.58485687 0.1478195 0.170248 0.3500596 0.02522742 -0.19730358 -0.45663235 0.15564094 0.25800905 0.29493213 -0.26404154 0.27686247 -0.1947176 0.115856655 0.301576 -0.19069248 0.3557163 0.2950382 -2.5713272e-05 0.019796655 -0.25676474 0.23501644 -0.06333053 0.018146481 -0.3163291 0.5389935 -0.1744548 0.21885984 0.048839025 0.50708914 0.47488317 0.19241516 0.6545118 0.21984665 -0.14764574 -0.08131721 0.64534324 0.28743646 0.061983835 -0.48614544 0.028440304 -0.109201096
三 -0.24912198 0.2752443 0.12353447 0.03844832 0.021663146 -0.53777355 0.20175867 0.5407408 -0.31419235 -0.19208217 -0.12524441 -0.25899348 -0.13355833 0.06423282 0.10016566 -0.163247 0.02522697 -0.42393497 -0.14569895 -0.51899916 0.23280102 0.19933307 0.17783964 -0.30004948 -0.069988154 0.030010369 -0.25605133 -0.25720993 -0.3447322 0.01753656 0.2872791 0.10351505 0.05030614 -0.02557741 -0.0219157 0.393665 -0.014360877 -0.261514 -0.34574655 -0.4680902 -0.012819294 -0.096298 -0.004307891 -0.15519404 0.27678233 -0.025627619 -0.093410216 0.012742642 0.17006204 0.17687015 0.23973347 -0.30078092 -0.19660564 -0.004875114 -0.31277415 0.3591306 0.20654427 -0.12939937 -0.5178831 0.12103717 0.13001785 0.29531205 0.027920116 -0.17053929 -0.4194152 0.13281175 0.22209364 0.2539925 -0.21949914 0.25216317 -0.17300995 0.09565439 0.2647792 -0.17306328 0.31842247 0.2586053 0.009970139 0.0062661786 -0.22851159 0.20901684 -0.05311339 0.025075657 -0.2712346 0.47053865 -0.1521071 0.19237551 0.03216977 0.46565002 0.4105303 0.17768049 0.566031 0.19142331 -0.12515429 -0.067155175 0.5647259 0.2633412 0.043675505 -0.41753 0.026060011 -0.101721205
好 -0.23479842 0.26525012 0.10470956 0.034829218 0.014938788 -0.485394 0.1924062 0.49021468 -0.2819819 -0.17795396 -0.10574166 -0.2299276 -0.10016534 0.058577016 0.0953851 -0.15289922 0.024220157 -0.3698597 -0.12285338 -0.47538045 0.21008028 0.16497156 0.15307605 -0.28344077 -0.059130464 0.0273451 -0.22801334 -0.2227487 -0.3067344 -0.0009784559 0.254472 0.08865794 0.03363831 -0.008894228 -0.0072869873 0.34915254 -0.011771537 -0.24250117 -0.29947808 -0.43347389 -0.013814289 -0.09365022 -0.006062143 -0.14940277 0.24437104 -0.021845425 -0.07868056 0.009186335 0.1373008 0.1547784 0.2102242 -0.26252154 -0.17581165 -0.011836067 -0.2803225 0.32294008 0.17596976 -0.10404366 -0.46554518 0.11876977 0.13150486 0.26047668 0.027913976 -0.15795198 -0.3730813 0.12877314 0.19567476 0.23123623 -0.20146672 0.23289034 -0.13938434 0.08103296 0.25155964 -0.15288326 0.2815775 0.22234811 0.0051817335 -0.00074815674 -0.19958152 0.20427471 -0.05951187 0.01585979 -0.24762873 0.41261065 -0.12659113 0.17398544 0.036682498 0.40407887 0.3838935 0.14053588 0.50577235 0.16289918 -0.10100382 -0.06298016 0.49883547 0.22665636 0.04760233 -0.38484535 0.022986889 -0.08005308
后 -0.21391921 0.24266829 0.106063604 0.03126095 0.0060620015 -0.4341458 0.16066593 0.4452109 -0.2619005 -0.15336262 -0.11012964 -0.21456909 -0.108767755 0.062206667 0.0959025 -0.13591619 0.016079472 -0.3349434 -0.11372017 -0.4277405 0.18167149 0.15599996 0.14117935 -0.24225387 -0.07075521 0.017579623 -0.20657612 -0.21492313 -0.27677834 0.0080574015 0.23904106 0.07556151 0.02863947 -0.016322093 -0.013034281 0.3065264 -0.0035564553 -0.20720093 -0.27031913 -0.39467704 -0.010840474 -0.07314201 -0.01025351 -0.1340916 0.21325676 -0.010268755 -0.08950631 0.017156743 0.14120014 0.14290236 0.1901729 -0.236156 -0.14885299 -0.021071753 -0.25621003 0.3020232 0.16630007 -0.10470428 -0.41969126 0.09871051 0.10556683 0.24900045 0.017230557 -0.13633646 -0.34479675 0.09981721 0.17862268 0.21729575 -0.18428983 0.21382615 -0.1312236 0.06913195 0.21402314 -0.14968994 0.26072964 0.19858904 0.013419052 0.013467406 -0.18784645 0.18333095 -0.052599393 0.015152348 -0.2231977 0.39432135 -0.12310634 0.15017244 0.030711645 0.3790858 0.34863365 0.12992027 0.4570148 0.15733585 -0.09669219 -0.05146581 0.4640456 0.21487786 0.03484919 -0.3435405 0.026609952 -0.07089854
兄 -0.2703049 0.32058433 0.1238402 0.04977901 0.01983621 -0.5771364 0.2385546 0.5802509 -0.33793297 -0.21405058 -0.116050266 -0.27561933 -0.13195683 0.074994795 0.11919291 -0.16973354 0.034751087 -0.44013935 -0.15166412 -0.5668321 0.23399562 0.20314956 0.18526495 -0.32009163 -0.078507036 0.027651919 -0.2605785 -0.28652024 -0.35829356 0.019558216 0.32051843 0.11123374 0.0494216 -0.018375665 -0.025981609 0.40685695 -0.010959 -0.28091007 -0.35674244 -0.5168041 -0.00512064 -0.10906464 0.008008122 -0.17060307 0.2807163 -0.014126429 -0.10398535 0.014841642 0.1650147 0.19480458 0.24910502 -0.31712466 -0.20699337 -0.0031179946 -0.3362373 0.38523602 0.21115637 -0.13340618 -0.5633441 0.13141464 0.15600684 0.3078107 0.0376451 -0.17186302 -0.43152538 0.13796468 0.24191016 0.26852223 -0.24099259 0.2784278 -0.17068355 0.099188276 0.2888809 -0.20128913 0.34327698 0.27359504 -0.0070179002 0.015174599 -0.2427494 0.23747644 -0.061308026 0.030907819 -0.29191497 0.49092558 -0.16087879 0.20321307 0.033076238 0.5022077 0.45357057 0.18104006 0.61986345 0.20319806 -0.12779807 -0.06926419 0.6135299 0.28481522 0.038624067 -0.4572006 0.021361778 -0.09089371
从 -0.243609 0.28882632 0.12510838 0.032956824 0.02182009 -0.5307403 0.20527768 0.5263762 -0.31079233 -0.19949047 -0.11631633 -0.26364103 -0.120456375 0.07423797 0.09425732 -0.15232983 0.020437535 -0.40170994 -0.1442371 -0.5223788 0.21832258 0.19313389 0.17082097 -0.29710624 -0.08383143 0.034490228 -0.24436927 -0.2581764 -0.34333414 0.019009622 0.2933436 0.0929799 0.048942637 -0.024353402 -0.010522462 0.38937977 -0.013862902 -0.25694898 -0.32672778 -0.4757652 -0.010879138 -0.093299076 -0.013968429 -0.15536803 0.27324617 -0.013199236 -0.08309709 0.016802488 0.16722424 0.16195929 0.2479195 -0.3010932 -0.18373956 -0.005249037 -0.31854436 0.35879254 0.18366964 -0.12255599 -0.5059265 0.11859159 0.14484687 0.2879101 0.028241621 -0.15224788 -0.3993155 0.13206314 0.22700022 0.24779072 -0.22352755 0.2483378 -0.16350943 0.09997972 0.27550623 -0.17926964 0.3121458 0.2566404 -0.0018280552 0.00073414826 -0.21472107 0.20322537 -0.059979446 0.028509878 -0.27509892 0.46057975 -0.14649633 0.18117644 0.04145192 0.45199683 0.40925965 0.17334437 0.5596461 0.19664171 -0.11717845 -0.062555626 0.5625032 0.2527162 0.042736284 -0.4212561 0.035925765 -0.100147516
皇 -0.21983492 0.25216317 0.09889044 0.040060002 0.00979311 -0.4528353 0.17917836 0.45019788 -0.26844224 -0.1595218 -0.11480456 -0.23252928 -0.10367094 0.058355693 0.086783804 -0.13263991 0.016457524 -0.3583781 -0.110665105 -0.45037597 0.18981735 0.17223755 0.1576782 -0.2632552 -0.0732901 0.021381425 -0.20524421 -0.22435573 -0.28962237 0.007274756 0.25721052 0.08875765 0.046649687 -0.00807049 -0.020492798 0.33741364 -0.019246507 -0.2332553 -0.2825101 -0.40620822 -0.0051807496 -0.095318735 0.0064119236 -0.14110081 0.22485867 -0.0124917375 -0.0867805 0.01907468 0.13246027 0.14052352 0.21437588 -0.2564244 -0.15324174 -0.015531463 -0.27659166 0.3091208 0.17434917 -0.10591707 -0.45444867 0.10705088 0.12702766 0.26259628 0.017641451 -0.13760579 -0.34370947 0.10419046 0.18856753 0.2254738 -0.20066406 0.20968175 -0.13446914 0.07771985 0.22792292 -0.15122569 0.2848621 0.22175227 -0.0007079276 0.0054994533 -0.17823172 0.1847159 -0.05829332 0.012892307 -0.23828742 0.4079992 -0.121153854 0.15484403 0.042073224 0.38851953 0.3590983 0.13923839 0.48896837 0.16400766 -0.10252694 -0.06151362 0.47782767 0.22377105 0.0328399 -0.365286 0.03727347 -0.0769098
知 -0.22051744 0.2614389 0.11100275 0.042346224 0.02017499 -0.4717278 0.18044774 0.48982668 -0.29753703 -0.17524317 -0.11858734 -0.24587019 -0.1140203 0.06724958 0.094386056 -0.14945836 0.022578321 -0.36736417 -0.115655996 -0.461578 0.20355862 0.16166817 0.16612534 -0.27705362 -0.06271411 0.029477712 -0.21509732 -0.231946 -0.31699875 0.0074203005 0.26474637 0.09245295 0.03880058 -0.0051103784 -0.01117615 0.34091565 -0.002077918 -0.24363557 -0.30762666 -0.42290634 -0.01737949 -0.08101078 -0.009241 -0.15164056 0.23293424 -0.009959212 -0.07973931 0.023782723 0.1460476 0.16051035 0.21760271 -0.2758815 -0.16212666 -0.020938868 -0.2808024 0.31759804 0.17431113 -0.11604578 -0.45817557 0.10460321 0.12620072 0.2668507 0.029156541 -0.15531881 -0.38215983 0.11036392 0.19259714 0.23579141 -0.20997792 0.23475899 -0.14259122 0.07957393 0.24082851 -0.16756536 0.27951077 0.22413824 0.0044636936 0.018911151 -0.19148684 0.19219553 -0.045410335 0.017280793 -0.25575477 0.42514125 -0.13432874 0.16415039 0.041593045 0.40062436 0.37238932 0.15175267 0.5119574 0.17213477 -0.11176133 -0.051758397 0.5069201 0.23323646 0.032229133 -0.38875967 0.02561459 -0.086861216
爰 -0.26835504 0.2889392 0.11749098 0.040342014 0.007959951 -0.54245824 0.21978019 0.54726857 -0.31843534 -0.19191614 -0.11897157 -0.2651892 -0.11926574 0.06826978 0.11781809 -0.17715941 0.03355287 -0.4156113 -0.13022664 -0.5397583 0.24387816 0.19977348 0.17262791 -0.29976496 -0.08280331 0.03393496 -0.26630652 -0.26642135 -0.34467614 0.0097544985 0.2898351 0.103278644 0.0398006 -0.011986509 -0.0048961374 0.39068827 -0.0058837505 -0.2674887 -0.34043956 -0.48421216 -0.023937944 -0.097728506 -0.011548457 -0.14996931 0.26623183 -0.009142825 -0.0957331 0.028435532 0.16869447 0.18687554 0.24852398 -0.29985374 -0.19182497 -0.017425988 -0.32680672 0.36645886 0.20915055 -0.11552484 -0.52358705 0.13261352 0.13713616 0.30505875 0.025085194 -0.17226772 -0.4286252 0.14242266 0.21634534 0.2751516 -0.23734124 0.25309685 -0.17382926 0.10627674 0.28222746 -0.179392 0.32218874 0.250192 -0.002200377 0.019547198 -0.23029508 0.2231924 -0.056218013 0.03841969 -0.27067897 0.48179698 -0.14308625 0.19681437 0.029254964 0.45592105 0.4235015 0.17108412 0.5821116 0.19195108 -0.12907209 -0.06425927 0.5725371 0.27473637 0.05616913 -0.43164334 0.035900567 -0.10870962
厥 -0.24980569 0.28271857 0.12409413 0.044433348 0.01985739 -0.5270007 0.22002612 0.5410319 -0.33082333 -0.20092183 -0.1313748 -0.26130134 -0.11606098 0.075879306 0.10260154 -0.166014 0.023760794 -0.41006428 -0.13311511 -0.5265083 0.23953554 0.18240066 0.16703989 -0.29583636 -0.071662374 0.015889006 -0.24320076 -0.26478 -0.34465125 0.013580876 0.2876649 0.11181932 0.041157626 -0.027697058 -0.007674658 0.39552805 -0.0051946123 -0.25914636 -0.33818358 -0.48805508 -0.013997733 -0.10121653 -0.0015309372 -0.14688058 0.27947626 -0.017575664 -0.10199296 0.026156707 0.17065878 0.16648903 0.24937916 -0.2911065 -0.18959063 -0.010175075 -0.32987067 0.34777573 0.18949473 -0.13144462 -0.5307372 0.13235041 0.13385236 0.3072399 0.03005251 -0.16736478 -0.4245686 0.12677886 0.22477649 0.27365768 -0.23163147 0.2593597 -0.167973 0.10748838 0.27152145 -0.18728763 0.32595342 0.25165138 0.012704234 0.0022656126 -0.21725905 0.22045925 -0.053884562 0.024621755 -0.27698082 0.46402428 -0.14055213 0.18196183 0.047564015 0.4669374 0.42750543 0.176375 0.5647753 0.20238099 -0.12993588 -0.05975181 0.5607622 0.2642852 0.04235862 -0.42665246 0.040574994 -0.09210481
时 -0.2334997 0.25744024 0.1107816 0.031374294 0.016602503 -0.46986115 0.19044219 0.471782 -0.27997693 -0.16595976 -0.11042543 -0.24152623 -0.109500855 0.062700614 0.084985465 -0.15580802 0.027976368 -0.3660823 -0.12730968 -0.46943954 0.21121858 0.17832989 0.14575984 -0.27481705 -0.06771042 0.017394735 -0.22160172 -0.23600811 -0.31210065 0.0041288645 0.2640034 0.09487225 0.032564256 -0.026811406 -0.019943709 0.3443083 -0.019659726 -0.23140447 -0.29080215 -0.43186572 -0.014444044 -0.07853016 0.0040523876 -0.13602963 0.23455249 -0.023984952 -0.090472095 0.017418284 0.14985617 0.14994137 0.22526868 -0.27128083 -0.1605652 -0.008031305 -0.28841278 0.3226025 0.16705926 -0.1042683 -0.4682904 0.11120114 0.12092382 0.26967147 0.029674832 -0.1557172 -0.36675823 0.11128106 0.18590865 0.23355202 -0.19340263 0.21497193 -0.13557151 0.08798274 0.23324427 -0.15738444 0.28575736 0.2278443 0.0038844773 0.018504923 -0.19899248 0.18082204 -0.06348949 0.029147964 -0.24496643 0.40648884 -0.13331096 0.1677825 0.04600452 0.3997625 0.3749972 0.14783113 0.5120323 0.17420751 -0.11676413 -0.06957666 0.49260324 0.23458196 0.04307495 -0.36830088 0.033001263 -0.07566362
成 -0.21014658 0.24083154 0.105801746 0.03958865 0.010275454 -0.45555505 0.16831823 0.44819278 -0.28179395 -0.15376645 -0.112548724 -0.23109727 -0.10116338 0.0663942 0.094332986 -0.1443195 0.03203052 -0.35007325 -0.12109303 -0.4490313 0.19084348 0.1519908 0.14900103 -0.24844824 -0.06685908 0.024570897 -0.20667955 -0.21142757 -0.2972618 0.011324096 0.24753658 0.093219504 0.03715098 -0.026331767 -0.01039735 0.3161834 -0.0022268652 -0.23004007 -0.28593758 -0.3969505 -0.017586792 -0.09316359 -0.0075114327 -0.13870281 0.2342308 -0.021818323 -0.086446516 0.007204962 0.14566046 0.14137621 0.20024595 -0.24890555 -0.1584093 -0.0043108305 -0.27302715 0.2930853 0.15903343 -0.112603895 -0.42893276 0.116283074 0.12049114 0.24487464 0.022413723 -0.13423356 -0.35535413 0.11990959 0.19391818 0.21974044 -0.19989002 0.22270265 -0.13807103 0.07798697 0.2326751 -0.15845427 0.26131725 0.21784236 0.00460605 0.011981988 -0.17448042 0.17845388 -0.05733002 0.012439821 -0.22118701 0.39327624 -0.11538436 0.16197267 0.026692528 0.38590693 0.36347938 0.13797581 0.47969776 0.16016474 -0.09695119 -0.060749546 0.46950868 0.21248549 0.03336626 -0.356837 0.02689118 -0.0786343
事 -0.21188907 0.2587713 0.112765305 0.046252448 0.014611109 -0.4692455 0.18415058 0.4770543 -0.29330397 -0.1672475 -0.110954 -0.22277832 -0.10272746 0.056526244 0.09308452 -0.1505126 0.016204828 -0.3639669 -0.12172372 -0.46829835 0.20318818 0.16805057 0.14509098 -0.26836148 -0.06748835 0.026635483 -0.21496826 -0.21922645 -0.29935622 -0.0008032282 0.25966093 0.10326234 0.05137899 -0.011924631 -0.008233495 0.3446592 -0.014224811 -0.23518911 -0.29805386 -0.42453694 -0.0060683447 -0.078321405 -0.0043699113 -0.14628433 0.2319387 -0.021220975 -0.09371877 0.019085757 0.14629704 0.14607579 0.20701915 -0.26107645 -0.16534065 -0.01319279 -0.27395344 0.31078032 0.1621019 -0.102391 -0.44990015 0.10454821 0.13218564 0.26897746 0.023879446 -0.14739071 -0.35780135 0.12500721 0.20317027 0.22457297 -0.1988834 0.21478446 -0.15235952 0.08138242 0.2358497 -0.16637987 0.28498083 0.21562004 0.004062505 0.0069648633 -0.19029526 0.19584736 -0.04357799 0.024811124 -0.24339136 0.4198276 -0.12215739 0.1663027 0.046462912 0.39595228 0.37496144 0.14239897 0.50455874 0.17785513 -0.11625738 -0.05552795 0.4983263 0.22319844 0.030322017 -0.37820578 0.032989666 -0.08188065
水 -0.2333233 0.27268672 0.122028664 0.031202944 0.011939816 -0.51185906 0.20148785 0.51328343 -0.2977982 -0.17793928 -0.11287054 -0.25687104 -0.10895678 0.057609037 0.09747612 -0.1607162 0.02639212 -0.4018103 -0.1245691 -0.49207515 0.22002265 0.18156043 0.16538627 -0.29697445 -0.077341735 0.02234944 -0.248811 -0.24558888 -0.3262693 0.006164123 0.28672323 0.101303585 0.04534416 -0.011349451 -0.009742804 0.36376303 -0.0077341544 -0.25398755 -0.31549844 -0.46329632 -0.008822547 -0.0979471 -0.00467127 -0.14152119 0.26656532 -0.009338168 -0.08396793 0.027674926 0.15866877 0.16368869 0.23239988 -0.29391122 -0.18111628 -0.022080814 -0.30347705 0.34037146 0.19633344 -0.12717144 -0.5027346 0.123984955 0.13491948 0.2824665 0.030355074 -0.15846394 -0.38849333 0.12528993 0.21471633 0.24678753 -0.21122782 0.24510923 -0.16298525 0.0816811 0.2547625 -0.16211876 0.29784337 0.22950062 0.011898534 -0.00023321179 -0.21450567 0.1979216 -0.06403412 0.03533007 -0.26464897 0.45987844 -0.1269093 0.17127283 0.04456604 0.4365713 0.40510693 0.16347146 0.5486797 0.17738833 -0.11183261 -0.060178615 0.54546326 0.24852453 0.03504729 -0.411652 0.028299171 -0.09583065
